FID	PC0	PC1	PC2	PC3	PC4	PC5	PC6	PC7	PC8	PC9
HGDP00448	-0.0808871606912	0.0373931769957	-0.0060227407559	-0.0021711954736	-0.0816166836954	0.0097480325543	0.0050594181424	0.0017252223049	-0.0917201915760	0.0818532990657
HGDP00479	-0.0804879230349	0.0371062147279	-0.0058415905347	-0.0030189775809	-0.0719780470947	0.0088182893545	0.0024640682533	-0.0018320328824	-0.0767982268056	0.0674363659178
HGDP00985	-0.0810415350528	0.0375345502685	-0.0060408048331	-0.0025819356834	-0.0711246788230	0.0105609502629	0.0030140361912	0.0000834805991	-0.0781811550228	0.0668266698336
HGDP01094	-0.0794936364064	0.0363128984215	-0.0057644901580	-0.0027614533379	-0.0696818283727	0.0095608161611	0.0050979217134	0.0026299584839	-0.0676100277091	0.0610540625563
HGDP00982	-0.0795789579160	0.0375576215577	-0.0050616826052	-0.0019656338231	-0.1395557668226	0.0260264811906	0.0115985331719	0.0030126780105	0.1504227035850	-0.1128744810245
HGDP00911	-0.0734436309384	0.0304189226915	-0.0041613109397	-0.0040112701567	0.0851547244539	-0.0145249537663	-0.0077149372381	-0.0059686732628	-0.0007810156562	-0.0255541455777
HGDP01202	-0.0747956325413	0.0320475577033	-0.0040470795496	-0.0054768691110	0.0851087032521	-0.0180147110260	-0.0076331698706	-0.0020426082153	0.0007788486131	-0.0286037276316
HGDP00927	-0.0767783541179	0.0331273120451	-0.0051864180005	-0.0064504900638	0.0794692472009	-0.0181905647028	-0.0084917147462	0.0018501400558	-0.0054873800956	-0.0224734205233
HGDP00461	-0.0811163341105	0.0379698419340	-0.0063627842845	-0.0020279379641	-0.0792153400974	0.0090688675714	0.0055913285211	0.0023300459180	-0.0891949848213	0.0766919837211
HGDP00451	-0.0818093721840	0.0377062645635	-0.0065314733113	-0.0021403671915	-0.0846444672731	0.0112385293329	0.0054687782821	0.0019267373280	-0.1126153550310	0.0969439207319
HGDP00986	-0.0808501377602	0.0373853242615	-0.0056006263614	-0.0040943094466	-0.0679380044180	0.0080784198097	0.0021997987541	0.0003543076401	-0.0758356375762	0.0651618859734
HGDP00449	-0.0796439936059	0.0371055066076	-0.0054050865865	-0.0007085645468	-0.1377650840400	0.0254074775796	0.0093967029794	0.0015665008311	0.1314973432744	-0.1013704806210
HGDP00983	-0.0800620099144	0.0377167602784	-0.0054438733940	-0.0022511598850	-0.1350827943012	0.0251288455399	0.0114108489395	0.0023255586401	0.1521043842946	-0.1146126077768
HGDP00912	-0.0749170919215	0.0316232594635	-0.0034179732023	-0.0055187298565	0.0854544953128	-0.0194328172179	-0.0074926463564	-0.0034167668661	-0.0020674376197	-0.0261050909253
HGDP01283	-0.0740423180509	0.0306623569618	-0.0050383179232	-0.0051401817848	0.0894983193728	-0.0175588080174	-0.0070987787926	-0.0031070212823	0.0027045927577	-0.0323650405093
HGDP00928	-0.0762092729605	0.0329991246055	-0.0049819132112	-0.0059772395535	0.0762166833233	-0.0174279074736	-0.0050129872804	-0.0026472579436	-0.0010246034252	-0.0241643289776
HGDP00937	-0.0764086756692	0.0329609598872	-0.0048377956073	-0.0058792582846	0.0775520333902	-0.0167272962518	-0.0081843702975	-0.0019415287460	-0.0025230714656	-0.0260552367404
HGDP01408	-0.0718774997246	0.0300183351485	-0.0048279724209	-0.0040143486679	0.0538930887988	-0.0116721244187	-0.0080969987238	0.0000070492602	0.0072142015696	-0.0154846362317
HGDP00991	-0.0752832645831	0.0339524787285	-0.0045207181249	0.0004657697019	-0.1037821682026	0.0190740681934	0.0074488449644	0.0025131527495	0.0367145392493	-0.0163331915503
HGDP01031	-0.0756626323339	0.0329174065278	-0.0043937896747	-0.0042822583432	0.0521213673566	-0.0149662783515	-0.0059150347516	0.0009421468431	-0.0047546953604	-0.0160711013986
HGDP01263	-0.0136657739310	-0.0276309982543	-0.0020176621598	-0.0052505913657	0.0247667084561	0.0373181795923	0.0227695922243	0.0033050791504	0.0154272780144	0.0120122831841
HGDP01275	-0.0173471206105	-0.0255628520474	-0.0026902137437	-0.0062823182232	0.0311747260826	0.0396121817901	0.0277443690050	0.0010280417257	0.0193690819570	0.0182534873669
HGDP00611	-0.0132506096398	-0.0266381447212	-0.0018315387812	-0.0047129505749	0.0166966708528	0.0168743977797	0.0103423071934	0.0001287512834	0.0239771578459	0.0224909976920
HGDP00623	-0.0078486637462	-0.0344319182734	-0.0014575499191	-0.0051240243973	0.0116881474333	0.0321861363970	0.0173529280403	0.0014303970139	0.0656670882503	0.0776810875285
HGDP00634	-0.0108728717019	-0.0291320994412	-0.0016942116623	-0.0056499790245	0.0127468767641	0.0164654340070	0.0067082630991	0.0012585306935	0.0240093641489	0.0264856802247
HGDP00645	-0.0093546986134	-0.0305396328202	-0.0019680636936	-0.0032766693988	0.0117394452005	0.0136784075868	0.0077896859866	-0.0020371294982	0.0252053850197	0.0240013417884
HGDP00557	-0.0020629787453	-0.0376744175004	-0.0022782927624	-0.0025440636755	0.0024895583235	0.0148772409104	0.0055161301696	0.0009644682099	0.0238354004598	0.0334109453203
HGDP00569	-0.0030436315501	-0.0370639220413	-0.0021934454597	-0.0031817266461	0.0019799644653	0.0137364161133	0.0100611679966	-0.0001230652924	0.0217287614704	0.0312546509604
HGDP00581	-0.0015781779875	-0.0368494761073	-0.0027937218207	-0.0028060173399	0.0014887388961	0.0148583860076	0.0043354706339	0.0021767438549	0.0327950091948	0.0438261915910
HGDP00594	-0.0027108572315	-0.0367242171639	-0.0013232398972	-0.0031559159118	0.0027579554651	0.0155113648784	0.0071781853067	0.0020113846408	0.0235192556492	0.0305193268789
HGDP00675	-0.0057229432631	-0.0341148296064	-0.0018623367812	-0.0028404153392	0.0063273216418	0.0174461658278	0.0084935119772	-0.0000612751732	0.0267993763757	0.0312674159922
HGDP00687	-0.0052376626347	-0.0346515401178	-0.0022390180174	-0.0032644523137	0.0057551121503	0.0126869421650	0.0069689938969	0.0012657838731	0.0277389314061	0.0319274240515
HGDP00697	-0.0052805544679	-0.0349815303051	-0.0017267748075	-0.0038464649441	0.0075573665448	0.0168416560851	0.0080473697920	0.0010362140942	0.0268498662326	0.0315626859291
HGDP00729	-0.0064070506719	-0.0323491023997	-0.0027000329139	-0.0034876872684	0.0084892832196	0.0162187915926	0.0087148746441	0.0028068966195	0.0249915818224	0.0288554186486
HGDP00741	-0.0068634904723	-0.0319578316648	-0.0019431209305	-0.0038187365277	0.0068584393233	0.0143570919616	0.0053737746014	-0.0011070824106	0.0174641751318	0.0229870217421
HGDP00011	0.0026966436475	-0.0268952790655	0.0004261428501	0.0009583469523	-0.0107005647296	-0.0453778087596	-0.0328689303755	0.0013558102172	0.0133164922872	0.0132299799910
HGDP00035	0.0014731512571	-0.0247068331152	0.0004079315336	0.0028252366127	-0.0093596987336	-0.0481088035466	-0.0364440132497	0.0029038451157	0.0159401861955	0.0176337867365
HGDP00058	0.0032179704785	-0.0247414927702	0.0010207199532	0.0043010627254	-0.0103460313949	-0.0475657143229	-0.0342207295301	-0.0024101965329	0.0085219566272	0.0083497576778
HGDP00082	0.0032794933765	-0.0264192341788	-0.0006149453570	0.0032913443816	-0.0118145606838	-0.0439629632742	-0.0330940491684	0.0006550931882	0.0077862957922	0.0051146684374
HGDP00103	0.0147030046805	0.0029719662086	0.0140489934142	-0.0103398744872	-0.0045711001513	-0.0113910629097	-0.0071636893016	0.0020259961925	-0.0040174869910	-0.0065531113923
HGDP00938	-0.0759257105729	0.0326247085327	-0.0054566800870	-0.0050163045767	0.0780183591083	-0.0184848929817	-0.0052312464273	-0.0022690528535	-0.0008291985687	-0.0216115682821
HGDP01411	-0.0687155160610	0.0274338076880	-0.0038132753436	-0.0046564812023	0.0545108786581	-0.0104348142723	-0.0023636182518	-0.0007313038274	0.0082338815351	-0.0140295738382
HGDP01264	-0.0165531147082	-0.0254966147167	-0.0032787340997	-0.0062049652114	0.0311660406058	0.0376133764504	0.0253534981952	0.0007570883789	0.0198042519015	0.0172161851345
HGDP01276	-0.0196414656404	-0.0231423474015	-0.0030695017419	-0.0061718987839	0.0332641488365	0.0379385348957	0.0263283464143	-0.0015764238450	0.0214802284534	0.0165555095525
HGDP00612	-0.0063342158530	-0.0360412019131	-0.0011765125449	-0.0036630670232	0.0114334608705	0.0318003399300	0.0165640944509	0.0045674053482	0.0742592102934	0.0899912673451
HGDP00624	-0.0083847880699	-0.0344584610533	-0.0019411769675	-0.0040556386117	0.0118777152715	0.0299407415670	0.0176714760854	0.0006367579630	0.0601356910542	0.0728266316425
HGDP00635	-0.0088928987342	-0.0300885913587	-0.0028615338175	-0.0035968870141	0.0116884450341	0.0155392873726	0.0091126971412	0.0029160032776	0.0290966803065	0.0288600548313
HGDP00646	-0.0146387419275	-0.0275849461793	-0.0015415944650	-0.0057431155090	0.0154292940789	0.0178466037937	0.0108730494716	0.0009373258029	0.0268769613986	0.0266676747709
HGDP00558	-0.0021130770774	-0.0378082689346	-0.0032415396041	-0.0037677682156	0.0026846334270	0.0130593677818	0.0055230025875	0.0004081952760	0.0303627135901	0.0393077002618
HGDP00570	-0.0029134767018	-0.0365509176983	-0.0021391585086	-0.0034741468938	0.0020837928332	0.0183758170535	0.0049303011321	0.0012785013042	0.0237495964222	0.0326424156774
HGDP00582	-0.0024304563361	-0.0359019216093	-0.0022287429341	-0.0049859263714	0.0025052786771	0.0128744502115	0.0049456421389	0.0019385547614	0.0209082181701	0.0244533792517
HGDP00595	-0.0018999635013	-0.0370244643448	-0.0028912697838	-0.0025055636239	0.0012878513176	0.0131894615666	0.0042262041711	-0.0020627189267	0.0236705277248	0.0341451187226
HGDP00676	-0.0050728106598	-0.0333206864099	-0.0006622936395	-0.0036203068476	0.0078833456458	0.0142287135976	0.0070129488419	0.0015869810098	0.0225107914235	0.0285255991582
HGDP00688	-0.0052846083988	-0.0332058192232	-0.0014442508841	-0.0009971343653	0.0067914635652	0.0142135378919	0.0079397285688	0.0017306625219	0.0228809534503	0.0256266856583
HGDP00698	-0.0064433816549	-0.0327283818094	-0.0008384702282	-0.0047984407531	0.0068563617866	0.0162062823244	0.0084569123974	0.0015369626472	0.0190966304618	0.0213102028917
HGDP00730	-0.0052152873394	-0.0341248624246	-0.0022863098034	-0.0034062334040	0.0073972557139	0.0126902033493	0.0082721479322	0.0012022546906	0.0261807605592	0.0292822764973
HGDP00742	-0.0053268759026	-0.0334268330294	-0.0029272810344	-0.0034739208497	0.0066772356492	0.0178965470157	0.0097143254791	0.0005353682623	0.0268396625010	0.0318684356349
HGDP00013	-0.0168791836101	-0.0130200730921	0.0007238019875	0.0021477492440	0.0063130347091	-0.0316440278872	-0.0261633095211	-0.0002098505892	0.0139246244248	0.0071278728477
HGDP00037	0.0023718579884	-0.0264867334983	-0.0000320962388	0.0018857915418	-0.0108995151615	-0.0440286359000	-0.0321432786779	0.0016655959069	0.0107717201234	0.0123792817397
HGDP00060	-0.0082276033002	-0.0193147414144	-0.0005058419930	0.0039440259981	-0.0007703624234	-0.0366818463480	-0.0283318129300	-0.0005777878251	0.0118601322151	0.0144616587878
HGDP00084	0.0034892055085	-0.0263044756887	-0.0010548633343	0.0041756040413	-0.0124997354624	-0.0452317354465	-0.0353288110320	-0.0006925838778	0.0058724811128	0.0052838640653
HGDP00104	0.0110442701169	-0.0063871284157	0.0087507585826	-0.0073502539955	-0.0073992631012	-0.0183732975642	-0.0125331088942	0.0037494261698	-0.0057519528978	-0.0060362041326
HGDP00464	-0.0808675468582	0.0378803206310	-0.0064368236911	-0.0025580665285	-0.0803580021754	0.0114329033998	0.0042743675340	0.0016554146393	-0.1020721003773	0.0884718220958
HGDP01084	-0.0814456997863	0.0376981960668	-0.0057602770175	-0.0022356330602	-0.0807596362428	0.0111026635150	0.0036351548025	-0.0007168256851	-0.1338632243775	0.1164720770209
HGDP00450	-0.0796689400512	0.0375747016519	-0.0049187917918	-0.0011580889169	-0.1381332133022	0.0262197342752	0.0098160555891	0.0016428198679	0.1291761411533	-0.1023032223344
HGDP00984	-0.0798848285385	0.0380009161575	-0.0055150504051	-0.0014689991526	-0.1439813150737	0.0271030945536	0.0102675284886	0.0007413145056	0.1437786402287	-0.1123749092238
HGDP00913	-0.0746198693602	0.0314417371684	-0.0040086997866	-0.0072696145657	0.0933362101724	-0.0181754228703	-0.0081207412564	-0.0049148987763	0.0003420108074	-0.0285508601706
HGDP01284	-0.0748955214070	0.0320445126914	-0.0046271019800	-0.0043770026735	0.0825326653329	-0.0167612251357	-0.0079700663859	-0.0028301822647	0.0014905949667	-0.0247278165576
HGDP00929	-0.0756728163947	0.0328952977940	-0.0047528131282	-0.0042176403938	0.0747098797500	-0.0176807827177	-0.0064469768847	-0.0012193858149	0.0003825481666	-0.0240355364137
HGDP00939	-0.0760722255999	0.0324253014699	-0.0042799439793	-0.0042794152806	0.0798163891933	-0.0174511522964	-0.0049242235349	-0.0012038546922	-0.0030436483139	-0.0226765394602
HGDP01412	-0.0719045181168	0.0306873858978	-0.0044917232286	-0.0042062561880	0.0518291028017	-0.0094134494349	-0.0061124318493	0.0005377620892	0.0126904582846	-0.0179911928393
HGDP01029	-0.0751448816552	0.0343264289628	-0.0046974122761	0.0005342820860	-0.1021918936979	0.0190370041071	0.0081673826297	0.0010636868055	0.0392755821109	-0.0169789354801
HGDP01253	-0.0176215634897	-0.0251132439349	-0.0028914864607	-0.0059225030593	0.0292048503698	0.0403727808323	0.0295204372448	0.0019178036560	0.0213142558836	0.0167990300367
HGDP01265	-0.0180005764520	-0.0247381251842	-0.0031267116094	-0.0052518897775	0.0322900850759	0.0415131841269	0.0314985631401	-0.0021715601453	0.0228188755170	0.0176083530270
HGDP01277	-0.0178508889161	-0.0242700360962	-0.0016825360711	-0.0066017019463	0.0325368915306	0.0383798898833	0.0275984448147	-0.0013338521605	0.0226914612283	0.0182853721240
HGDP00613	-0.0068838806453	-0.0306775937039	-0.0021048921875	-0.0026693969577	0.0069845458209	0.0099730461168	0.0040528729552	0.0013335002639	0.0235370003448	0.0251007397695
HGDP00636	-0.0067309674669	-0.0340811129200	-0.0011780891144	-0.0020581152281	0.0121970518311	0.0282873461044	0.0154623830075	0.0054803501706	0.0595150478338	0.0677615552850
HGDP00647	-0.0067876530416	-0.0314869317826	-0.0020571036187	-0.0044100776936	0.0082558076308	0.0151974420660	0.0098486028152	0.0034840216992	0.0282780930177	0.0325380423907
HGDP00559	-0.0018155247606	-0.0371992579337	-0.0025305871114	-0.0043725179707	0.0003722605698	0.0147596963691	0.0063289709347	0.0006022457227	0.0234215292468	0.0298804371579
HGDP00571	-0.0015059462221	-0.0379972608954	-0.0037515192500	-0.0027567948955	0.0016054835882	0.0132331456490	0.0062836480209	-0.0001277778745	0.0255591885616	0.0375063617060
HGDP00583	-0.0019153143618	-0.0376291374816	-0.0026606681920	-0.0034972556765	0.0015924060245	0.0143561266785	0.0047287896654	0.0026067077708	0.0275445822849	0.0371707095331
HGDP00597	-0.0017505691261	-0.0366589261989	-0.0029534915103	-0.0023567816227	0.0028055616935	0.0155573275027	0.0051118391049	-0.0016336186485	0.0196347819592	0.0251229867794
HGDP00677	-0.0058239735544	-0.0336171174866	-0.0032268811111	-0.0012466302862	0.0073543473505	0.0150232913004	0.0075567140430	0.0000119535674	0.0276062358462	0.0303594072331
HGDP00689	-0.0060830378702	-0.0343911901177	-0.0020705368770	-0.0033688178315	0.0068364863815	0.0166361126393	0.0087113547066	0.0035789561618	0.0248799606131	0.0280563976550
HGDP00465	-0.0811642524908	0.0377625431947	-0.0055648737213	-0.0021600720294	-0.0807546829159	0.0120418111716	0.0052217543648	0.0037478629634	-0.1075007125459	0.0975740752648
HGDP01085	-0.0814478428514	0.0379977934696	-0.0061227785692	-0.0030541808606	-0.0800417710267	0.0123589796352	0.0049042333041	0.0048548166473	-0.1140403089366	0.1035336644966
HGDP00456	-0.0798733163905	0.0379195644132	-0.0054282850180	-0.0012788185595	-0.1402092570068	0.0246189914844	0.0092409904241	-0.0011103633856	0.1273377343301	-0.1003155016125
HGDP01081	-0.0797740300468	0.0373149458608	-0.0056149360139	-0.0017699606140	-0.1327894185611	0.0225193190779	0.0086814515811	0.0013209918909	0.1238317712189	-0.0968353514401
HGDP00914	-0.0742311412144	0.0312383435238	-0.0045991079531	-0.0025952527057	0.0873643160111	-0.0158573145253	-0.0060433108851	-0.0029507838424	-0.0009164597999	-0.0267958570917
HGDP01285	-0.0745126759672	0.0307777999996	-0.0045602267669	-0.0061080782921	0.0909533812756	-0.0169649139159	-0.0076684703066	-0.0006859635938	0.0027470587683	-0.0277720809002
HGDP00930	-0.0754112007243	0.0327349052972	-0.0047525775975	-0.0050406868041	0.0781571403601	-0.0172463489363	-0.0058963542548	-0.0010751356361	-0.0037584963324	-0.0219344691775
HGDP00940	-0.0770603321926	0.0331603058260	-0.0042515028450	-0.0060357320070	0.0773145806172	-0.0181435587097	-0.0073428018617	0.0002496489216	-0.0027393076123	-0.0231655909218
HGDP01413	-0.0690909936914	0.0274040498853	-0.0038328811497	-0.0039398373074	0.0544698540331	-0.0110614111858	-0.0020640776775	-0.0007221213869	0.0059332926673	-0.0139551287790
HGDP01032	-0.0750459653400	0.0337076649609	-0.0046322750488	-0.0002898758079	-0.1062062110615	0.0186956417515	0.0083672469883	0.0014160140284	0.0372589594994	-0.0152063713947
HGDP01254	-0.0171843891084	-0.0250422662095	-0.0013447159478	-0.0060299443175	0.0310289808846	0.0403170430638	0.0290884235299	0.0008889847178	0.0189272219128	0.0166801352950
HGDP01266	-0.0176197603639	-0.0246841033144	-0.0025426841134	-0.0057590286103	0.0331830674582	0.0359114545048	0.0267041661248	0.0012582277879	0.0196275382135	0.0145022779883
HGDP01278	-0.0173347672534	-0.0249065247719	-0.0032454628170	-0.0064194071353	0.0307863448923	0.0394863660004	0.0293667938454	-0.0007322910133	0.0192759328139	0.0157198928629
HGDP00614	-0.0076470978878	-0.0318336883739	-0.0017808207278	-0.0039409196435	0.0095172514341	0.0170452653068	0.0063137224438	0.0006910731673	0.0287004392750	0.0335267382053
HGDP00626	-0.0065136629572	-0.0323182591435	-0.0023936566725	-0.0033638894836	0.0077403390135	0.0119830678773	0.0094593597255	0.0022681708175	0.0299687473399	0.0351186258086
HGDP00637	-0.0081981622780	-0.0307443611714	-0.0008728013650	-0.0035819735427	0.0090563147866	0.0174516398047	0.0089337829758	0.0010140891487	0.0258813015825	0.0295275109741
HGDP00648	-0.0063132213208	-0.0345359368276	-0.0016152900334	-0.0050317957458	0.0113645101184	0.0295639337205	0.0167914688105	0.0044578312997	0.0634182952124	0.0768404095140
HGDP00572	-0.0028524025878	-0.0368691445394	-0.0015746256351	-0.0025515363253	0.0016059002329	0.0121342628690	0.0049328259635	0.0013858325382	0.0247363779904	0.0325275240895
HGDP00584	-0.0024995915174	-0.0361389238223	-0.0030514831059	-0.0037246066312	0.0017879352457	0.0120030539506	0.0064692191582	0.0010246926228	0.0188591593627	0.0235335180101
HGDP00598	-0.0033207780575	-0.0360139670839	-0.0023637502759	-0.0029475876497	0.0010973643621	0.0155401130870	0.0079438034272	0.0012252713953	0.0239602780575	0.0293296802216
HGDP00678	-0.0056578720492	-0.0340863888629	-0.0016045701002	-0.0033584274495	0.0067761007476	0.0132148673972	0.0062495813709	-0.0021124348061	0.0295504773334	0.0356972638685
HGDP00690	-0.0052269292073	-0.0339640145232	-0.0018426837665	-0.0016486708503	0.0078350709106	0.0154384895707	0.0090391774208	0.0002688220491	0.0267048495236	0.0316414656379
HGDP00466	-0.0808214158612	0.0383080366724	-0.0059751281649	-0.0034141038703	-0.0852632245162	0.0127838199755	0.0049779569645	0.0032193119586	-0.1151789756759	0.1083416450689
HGDP00454	-0.0803383607572	0.0369959895657	-0.0067895134371	-0.0014279891061	-0.0704799978416	0.0093925124193	0.0053909999395	0.0019843089020	-0.0877727657567	0.0766987265655
HGDP01086	-0.0794018510627	0.0365134479505	-0.0050560783446	-0.0026959307612	-0.0680568085846	0.0076683952233	0.0046956369154	0.0010698182000	-0.0735647786072	0.0645619150741
HGDP00462	-0.0791404313236	0.0369280812471	-0.0053988502082	-0.0010573714657	-0.1324641428918	0.0233778442538	0.0098120203562	0.0014462762018	0.1266795475322	-0.0978834815685
HGDP00915	-0.0736986334715	0.0308384007105	-0.0050535378898	-0.0046266497060	0.0934227532866	-0.0154309328757	-0.0068322654740	-0.0047422131593	0.0021949631306	-0.0312526211623
HGDP01286	-0.0748991034971	0.0310126795993	-0.0046198865933	-0.0043826106252	0.0863485399117	-0.0165502143672	-0.0060771189676	-0.0024916840277	0.0026791284142	-0.0264962187718
HGDP00931	-0.0759800866901	0.0328740079825	-0.0043304937966	-0.0048970729556	0.0788967849907	-0.0181311857181	-0.0076038277527	-0.0014359311290	-0.0049289513281	-0.0258977946454
HGDP00992	-0.0746819243427	0.0339147358238	-0.0044833199129	-0.0005290323431	-0.1034512467367	0.0191773947347	0.0094519319129	0.0017211049056	0.0378570279701	-0.0134206216533
HGDP00941	-0.0761952857819	0.0330880162121	-0.0058524548589	-0.0042552462230	0.0811555035013	-0.0172558539456	-0.0087586074541	-0.0024432085027	-0.0020336575238	-0.0217252408474
HGDP01414	-0.0723459302019	0.0306061207183	-0.0037433603330	-0.0035103282285	0.0538752742529	-0.0127405280957	-0.0047458542437	0.0013420855246	0.0056760116645	-0.0161112120149
HGDP01036	-0.0754479839744	0.0340228909145	-0.0046156446749	0.0002803091772	-0.1033729408392	0.0201012431619	0.0090324962357	0.0002573208545	0.0377171142796	-0.0195423216564
HGDP01255	-0.0151299027230	-0.0262930049787	-0.0034516390976	-0.0059883038781	0.0250057136151	0.0327874157025	0.0269093672368	-0.0010459101729	0.0053283660142	-0.0025092076967
HGDP01267	-0.0178202398811	-0.0249027904882	-0.0014115844858	-0.0046289790126	0.0330422722585	0.0397766576445	0.0260438610831	0.0002657893881	0.0241179637549	0.0203882735454
HGDP01279	-0.0174188867332	-0.0247988292008	-0.0017992519469	-0.0052380833760	0.0316865565702	0.0393862715565	0.0255866344689	0.0028352487272	0.0221147899085	0.0191115353245
HGDP00615	-0.0058935192171	-0.0325036839261	-0.0028431771192	-0.0043858449944	0.0065104068243	0.0142148849367	0.0111729081210	0.0020380751001	0.0315973318065	0.0369992296509
HGDP00627	-0.0126325574710	-0.0283032522764	-0.0022570311745	-0.0032471094441	0.0162884886221	0.0243200129865	0.0129590398345	0.0027263983659	0.0612277677682	0.0714889172399
HGDP00638	-0.0120393194543	-0.0287687206707	-0.0022187885847	-0.0039231652585	0.0117598854922	0.0188423548719	0.0131571587052	0.0021174508849	0.0252043928494	0.0310717380892
HGDP00649	-0.0055651343375	-0.0358305438785	-0.0019553286709	-0.0037198635376	0.0120920523921	0.0312951133971	0.0188611202263	0.0050155444186	0.0717866542716	0.0886248812502
HGDP00561	-0.0023064019509	-0.0362536746286	-0.0035921562361	-0.0040264015048	0.0026394138018	0.0146428962172	0.0075543384059	0.0021997995752	0.0205510253345	0.0249415226327
HGDP00573	-0.0027044776651	-0.0369876673532	-0.0035984809105	-0.0037612694990	0.0011841677796	0.0147970284790	0.0058537312291	0.0019583579271	0.0224916487659	0.0316261634053
HGDP00585	-0.0016285324982	-0.0381822714354	-0.0031074133866	-0.0030817645454	0.0031322362382	0.0162857801404	0.0065300605143	0.0014950474826	0.0234154022535	0.0371213597816
HGDP00599	-0.0014734578664	-0.0375088900843	-0.0026309255438	-0.0031545690716	0.0009643901832	0.0127100415611	0.0056887439819	-0.0000344736490	0.0215829350384	0.0299424139403
HGDP00679	-0.0052580299106	-0.0346446209097	-0.0023704600544	-0.0032960445547	0.0057616815570	0.0130680777657	0.0074604351566	0.0003097817089	0.0261321956767	0.0343225762298
HGDP00691	-0.0066630738943	-0.0329284790613	-0.0019854566801	-0.0036524040534	0.0094806879792	0.0137299005171	0.0075271375976	0.0024658373458	0.0235466041684	0.0290009501100
HGDP00469	-0.0799981472658	0.0365645289971	-0.0059767312752	-0.0028845793192	-0.0663961818249	0.0091702755495	0.0027890651754	0.0014106962001	-0.0757823894846	0.0641776216113
HGDP00455	-0.0807677482359	0.0377903337914	-0.0056556484469	-0.0020173585887	-0.0738352674661	0.0125016560628	0.0051722438407	0.0014379152399	-0.0856130737648	0.0745345041288
HGDP01087	-0.0812872601557	0.0376829397997	-0.0057650393874	-0.0020368227423	-0.0694513478087	0.0078548333248	0.0020986505879	0.0027596852038	-0.0838517189562	0.0741026774302
HGDP00463	-0.0792734292015	0.0372218586190	-0.0052327291893	-0.0020019289656	-0.1360904011743	0.0243220585891	0.0112433037650	0.0009625012339	0.1275856278019	-0.1013811311823
HGDP00904	-0.0745766050080	0.0317706637736	-0.0045813694742	-0.0046646259651	0.0877982726561	-0.0166490628408	-0.0077700408418	-0.0023477952602	-0.0016708555430	-0.0285247177542
HGDP00916	-0.0727414415865	0.0296943912008	-0.0047410817440	-0.0045972350282	0.0931404078782	-0.0162560499479	-0.0070231413385	-0.0057125402784	0.0014823276762	-0.0311880699643
HGDP00920	-0.0769832609662	0.0336069876100	-0.0041058239099	-0.0049774096636	0.0856144007590	-0.0217996879683	-0.0078064487782	-0.0003988820088	0.0031986152830	-0.0295526179290
HGDP00932	-0.0764821508984	0.0332755925209	-0.0041865766476	-0.0034099118797	0.0785350893741	-0.0164273666108	-0.0059681263945	0.0000207542148	0.0010594579272	-0.0233769620119
HGDP00942	-0.0761443481537	0.0329502613593	-0.0050140702160	-0.0055003882216	0.0781828708522	-0.0163630328350	-0.0080627641469	0.0001700500851	-0.0016373417653	-0.0210766319976
HGDP01415	-0.0636480736368	0.0235438970632	-0.0026558309969	-0.0026297327430	0.0422292544519	-0.0038204615826	-0.0004409158741	-0.0005752802123	0.0139499070293	-0.0056033854359
HGDP00993	-0.0763545217711	0.0335839862396	-0.0050563712956	-0.0036762696837	0.0253132822128	-0.0100096793084	-0.0051755741386	-0.0022192538877	0.0070002575646	-0.0185279281640
HGDP01256	-0.0195499154363	-0.0236130220634	-0.0025757129540	-0.0065600442297	0.0276086043882	0.0319129304877	0.0257757305200	0.0027894087973	0.0166359949191	0.0145768639235
HGDP01268	-0.0180766908117	-0.0247704091791	-0.0017868999381	-0.0038641034883	0.0337562990589	0.0391365145590	0.0279010315449	0.0006656050763	0.0264840268497	0.0242778720113
HGDP01280	-0.0180091460045	-0.0252279576346	-0.0027442429125	-0.0056697732430	0.0348966492947	0.0446256663298	0.0327344111528	0.0022920670542	0.0285667943530	0.0240369519657
HGDP00616	-0.0055124398490	-0.0359122749564	-0.0009148680224	-0.0050348026029	0.0133743568104	0.0386769634313	0.0198902232009	0.0037444385736	0.0824323721140	0.1037695940762
HGDP00628	-0.0072547103824	-0.0311062449792	-0.0016632368581	-0.0031307442912	0.0075128152460	0.0155274283230	0.0060034781283	0.0024638794985	0.0265410359038	0.0325064186860
HGDP00639	-0.0076446070848	-0.0327359151121	-0.0027049185827	-0.0041641287881	0.0101865520840	0.0232321946368	0.0136482821995	0.0012292488203	0.0398263644196	0.0455662167463
HGDP00650	-0.0059132082715	-0.0347614266012	-0.0017046276140	-0.0057263245928	0.0104699227883	0.0303299605062	0.0181445222449	0.0028381130366	0.0614044682700	0.0766532145894
HGDP00562	-0.0022304894099	-0.0370847523719	-0.0012413338662	-0.0031692545544	0.0021110738733	0.0147353195479	0.0059342255828	-0.0008002938381	0.0242015471351	0.0302728494431
HGDP00574	-0.0021504918419	-0.0380914462653	-0.0026537080908	-0.0036081109599	0.0021589840907	0.0147795274733	0.0047368306932	0.0004032271028	0.0269544107500	0.0364781780397
HGDP00586	-0.0028203734109	-0.0364018861526	-0.0006956707025	-0.0047956123294	0.0028999594411	0.0141937896863	0.0046536934978	-0.0010367993385	0.0200231183347	0.0271748597553
HGDP00600	-0.0014921937510	-0.0372771349613	-0.0016064144553	-0.0032886659534	0.0022620267015	0.0129445710635	0.0048550797480	0.0000595549871	0.0170257507157	0.0221415562511
HGDP00680	-0.0087241194530	-0.0307818514263	-0.0015457550551	-0.0028913714552	0.0094906266665	0.0124654004744	0.0065397881606	-0.0001922865642	0.0273790994022	0.0301697877752
HGDP00692	-0.0141807130437	-0.0251258929682	-0.0017654592628	-0.0036879557428	0.0113748712965	0.0113623624654	0.0097503273959	0.0001777997707	0.0222365504838	0.0231688484299
HGDP00933	-0.0766784987451	0.0332939837024	-0.0042842887453	-0.0045196762215	0.0798485489441	-0.0190991819320	-0.0081727164759	-0.0031332368552	-0.0053022201592	-0.0219864622464
HGDP00470	-0.0800859807509	0.0377128138286	-0.0059076916867	-0.0024156548131	-0.0663833230737	0.0090560127480	0.0022208055576	0.0028784689330	-0.0739386195924	0.0662959172397
HGDP00457	-0.0812294197677	0.0380035097161	-0.0057091793776	-0.0029350226106	-0.0805672961129	0.0109698416316	0.0042543051899	0.0008165395243	-0.1300445400464	0.1152215274960
HGDP01088	-0.0811410639501	0.0383207206343	-0.0054702469646	-0.0024673984439	-0.0867244789268	0.0137878972665	0.0051207256670	0.0028012733641	-0.1135496955482	0.1096889829506
HGDP00467	-0.0798139773767	0.0374253633145	-0.0060807712118	-0.0017711702526	-0.1354770228830	0.0244424669487	0.0089905320274	0.0027839246527	0.1268276153935	-0.0966314788379
HGDP00905	-0.0739255821720	0.0309087494576	-0.0046146668337	-0.0033587733928	0.0829531507444	-0.0184262460700	-0.0051322889918	-0.0018330381186	0.0027111346103	-0.0251973017630
HGDP00917	-0.0732624626436	0.0306941336789	-0.0043845388384	-0.0073783402968	0.0869452048575	-0.0160034764703	-0.0061699345611	-0.0017423856791	0.0024902039852	-0.0220750533500
HGDP00921	-0.0766278269385	0.0332601405987	-0.0047438220802	-0.0052267736535	0.0872135301479	-0.0233219807147	-0.0087229144239	0.0003630065251	0.0038588204939	-0.0306911581294
HGDP00943	-0.0759806573330	0.0328432685296	-0.0040730138218	-0.0053479331661	0.0783391258879	-0.0179026836533	-0.0081185071536	-0.0011600167215	-0.0015598531518	-0.0250413413571
HGDP01416	-0.0651257629641	0.0232700473199	-0.0026523145373	-0.0036262753182	0.0433803636864	-0.0069366036227	-0.0025458411498	0.0019467668103	0.0161805681571	-0.0056837084329
HGDP00994	-0.0761713292676	0.0334495360806	-0.0038322630668	-0.0036032913303	0.0265805096037	-0.0070880395708	-0.0041108704517	0.0004920961577	0.0064986724570	-0.0209520537484
HGDP01257	-0.0210366571047	-0.0223564706092	-0.0026069720656	-0.0070959449287	0.0357272280233	0.0402555762732	0.0266389561054	-0.0009879433223	0.0230239327616	0.0154031033257
HGDP01269	-0.0182049698116	-0.0239126446195	-0.0035842931817	-0.0055395071930	0.0333597096087	0.0382840115914	0.0279850271727	0.0000852857868	0.0244098488722	0.0186652041532
HGDP01281	-0.0179707067141	-0.0247878035858	-0.0029099995337	-0.0062717908147	0.0357539510462	0.0449411265768	0.0301238350221	0.0022322957255	0.0299101914456	0.0234869743779
HGDP00617	-0.0089458377661	-0.0316573249251	-0.0029455910670	-0.0034035803752	0.0096819753649	0.0202180197665	0.0106255813571	0.0010771374398	0.0306887389319	0.0321103272216
HGDP00629	-0.0079604971288	-0.0308146226900	-0.0010745831797	-0.0009686714526	0.0086448657387	0.0152436740017	0.0103402817665	0.0016613580670	0.0263033794240	0.0279676012605
HGDP00640	-0.0121130143245	-0.0275700171109	-0.0020962595723	-0.0035723623450	0.0128953931662	0.0169342301596	0.0111142618680	0.0030313932731	0.0267940084286	0.0255285122848
HGDP00651	-0.0069393102095	-0.0343336481323	-0.0020425201581	-0.0042231187423	0.0141716006126	0.0278609870086	0.0183557234282	0.0024212073595	0.0551452961046	0.0655252640512
HGDP00563	-0.0031693671557	-0.0366627644496	-0.0010985074329	-0.0029622419363	0.0020875170946	0.0121128763066	0.0056536791955	0.0021914910008	0.0200870339520	0.0213098164028
HGDP00575	-0.0019921505479	-0.0380477935060	-0.0019520900371	-0.0033092475736	0.0006242170930	0.0168186088789	0.0064600265537	-0.0001068789395	0.0250870986684	0.0334921105205
HGDP00587	-0.0021690729322	-0.0363479672589	-0.0028205434078	-0.0024735414550	0.0017233173277	0.0126850185982	0.0048708667073	-0.0035064165910	0.0141526635176	0.0188267851003
HGDP00601	-0.0028959120678	-0.0379057483668	-0.0016346546062	-0.0024069741776	0.0023090304619	0.0112426097728	0.0042219994557	0.0036145864442	0.0233651434448	0.0300873851269
HGDP00681	-0.0059285915742	-0.0332834956702	-0.0011988484754	-0.0025467098547	0.0075894762785	0.0189067329378	0.0093649429634	0.0015795954870	0.0279153326069	0.0345275053488
HGDP00693	-0.0055155008794	-0.0337074244110	-0.0021936566327	-0.0042806047268	0.0064787554588	0.0147436395528	0.0078067574217	0.0023434745016	0.0285712355152	0.0343378610050
HGDP00473	-0.0805496734297	0.0376712656148	-0.0059168587208	-0.0031051688729	-0.0753341795897	0.0105748166231	0.0035222495407	0.0001245088984	-0.0928305707557	0.0778870706958
HGDP00459	-0.0803925815003	0.0370908704294	-0.0058767136719	-0.0033827953723	-0.0712062582791	0.0103869096266	0.0041128003657	-0.0006216696260	-0.0793327207452	0.0693223352889
HGDP01090	-0.0803875854058	0.0373263364255	-0.0057529684380	-0.0020223140024	-0.0692839225721	0.0096699054964	0.0038409042663	0.0007992064974	-0.0843781386192	0.0709546387004
HGDP00471	-0.0802918023981	0.0382172539098	-0.0058267859183	-0.0008508591336	-0.1523837326304	0.0279990894887	0.0114447926196	0.0005629226125	0.1562355751115	-0.1258311965410
HGDP00907	-0.0752081315535	0.0317806715536	-0.0044115933054	-0.0050309159411	0.0890539396758	-0.0173403030128	-0.0070832267761	-0.0020612422909	0.0034966271330	-0.0274184945771
HGDP00919	-0.0743193186846	0.0315449752139	-0.0036858649715	-0.0063213888939	0.0939939668622	-0.0167891634177	-0.0078443225565	-0.0034527177325	0.0041415597677	-0.0310946974961
HGDP00923	-0.0775464037503	0.0336255340383	-0.0056318339130	-0.0067216882923	0.0974898928986	-0.0219601412880	-0.0125872896270	0.0018236786099	0.0033310206142	-0.0436100546856
HGDP00935	-0.0768931418340	0.0331368883408	-0.0044271442809	-0.0046848409973	0.0790057238084	-0.0172568569532	-0.0065499287880	-0.0020032927461	-0.0013322756651	-0.0241449181443
HGDP01418	-0.0722080093208	0.0299773579161	-0.0037210499278	-0.0036604637349	0.0528168807307	-0.0101969722945	-0.0025113660117	-0.0017970568272	0.0108135153025	-0.0173385080186
HGDP01034	-0.0752248208255	0.0325292649889	-0.0045296193167	-0.0033265533923	0.0318812456394	-0.0078239234376	-0.0034422235987	0.0001051225035	0.0079815331400	-0.0178653403408
HGDP01259	-0.0191234637652	-0.0224118954090	-0.0014425615066	-0.0064654572117	0.0302443061116	0.0321273493055	0.0254659569808	-0.0011485876189	0.0153246161204	0.0111913024714
HGDP01271	-0.0461145928943	0.0030801116728	-0.0041092470739	-0.0038309165466	0.0518499159043	0.0108413441615	0.0115129847001	-0.0007933707716	0.0108640117382	0.0027236386179
HGDP00607	-0.0077980907032	-0.0330824533584	-0.0006139391261	-0.0033677180804	0.0130358573824	0.0282169607597	0.0158133323386	0.0052501722859	0.0640211646820	0.0767519851656
HGDP00619	-0.0078400050024	-0.0329804846051	-0.0019300247736	-0.0030911377454	0.0068346082079	0.0151746146916	0.0085867328211	0.0012634131863	0.0253203434664	0.0283028429756
HGDP00631	-0.0062152371234	-0.0355695014230	-0.0013953340877	-0.0052367575679	0.0133871787632	0.0322849556728	0.0182686447247	0.0042944579308	0.0732963713814	0.0910630835933
HGDP00642	-0.0068845805390	-0.0329342373817	-0.0013734142214	-0.0028579036177	0.0081404936128	0.0180971297027	0.0080444318245	-0.0016073663127	0.0329193843230	0.0383103975570
HGDP00653	-0.0058534097124	-0.0350986394149	-0.0015605470663	-0.0041785359059	0.0094994107059	0.0287016668327	0.0166481827229	0.0046452340433	0.0629097032492	0.0785400185296
HGDP00565	-0.0030392261407	-0.0369024525672	-0.0019607195189	-0.0047018877241	0.0033021167162	0.0146404945729	0.0063062280818	-0.0002348049974	0.0265408044403	0.0366914228770
HGDP00577	-0.0021396047816	-0.0366340993429	-0.0012600353455	-0.0030303138908	0.0025345956594	0.0162826193675	0.0074334117812	0.0003899809023	0.0247900264746	0.0368395249792
HGDP00603	-0.0030577633619	-0.0364950101780	-0.0017649525708	-0.0032941425094	0.0027885720506	0.0125973659378	0.0086142033537	0.0016943726239	0.0240014328559	0.0336034774676
HGDP00683	-0.0063381652507	-0.0324143516285	-0.0009555493399	-0.0041312073257	0.0069834675781	0.0136002798037	0.0075575350709	0.0021101460057	0.0250864906537	0.0290386194977
HGDP00695	-0.0057821584883	-0.0340334370826	-0.0007057244291	-0.0039835472501	0.0056758173171	0.0156899884731	0.0067366833791	0.0024694568944	0.0261638467612	0.0311121326250
HGDP00472	-0.0802601272282	0.0369016431857	-0.0057970802908	-0.0027534234808	-0.0684736082128	0.0101796860719	0.0044379808371	0.0036896740513	-0.0909537749387	0.0769778815984
HGDP00458	-0.0802582271508	0.0378405532208	-0.0054325617769	-0.0016351763768	-0.0651103125782	0.0083985800767	0.0017179632903	0.0014490441088	-0.0676729788874	0.0550022121643
HGDP01089	-0.0812390867973	0.0376974910403	-0.0058247919856	-0.0024350268366	-0.0792293694528	0.0134340970840	0.0042191660394	-0.0011746600782	-0.0952655506669	0.0814038079304
HGDP00468	-0.0806645289707	0.0381037042856	-0.0061357215821	-0.0006953197177	-0.1538261751296	0.0275884256941	0.0114320000330	-0.0001704169433	0.1615111266720	-0.1294756096820
HGDP00906	-0.0739620708219	0.0310286263589	-0.0046418453641	-0.0045315835105	0.0887830054500	-0.0167653986377	-0.0056942274818	-0.0014699717566	0.0027753204424	-0.0280229991969
HGDP00918	-0.0720754593808	0.0289963854085	-0.0036757100939	-0.0040656765671	0.0861259576354	-0.0130522198267	-0.0064894614451	-0.0035055075414	0.0043034781038	-0.0256428801655
HGDP00922	-0.0778545291926	0.0336748404967	-0.0054717106999	-0.0061931493055	0.0973049251550	-0.0227718782358	-0.0116389270737	0.0020522824338	0.0029346018711	-0.0431012551136
HGDP00934	-0.0755207191434	0.0324783920407	-0.0044695527324	-0.0046757198157	0.0799036760777	-0.0140975756991	-0.0080918486320	-0.0003278785737	-0.0036048503798	-0.0169566510718
HGDP00641	-0.0067959065691	-0.0347047158206	-0.0017201031417	-0.0041485062918	0.0118897293404	0.0266599942919	0.0135949986052	0.0041827634830	0.0602324166156	0.0732110449905
HGDP00564	-0.0022602839016	-0.0377721403549	-0.0023561988545	-0.0034410069561	0.0005081031944	0.0112089737488	0.0057287963028	-0.0011924244783	0.0252707917703	0.0297406930895
HGDP00576	-0.0049427874518	-0.0343614851137	-0.0016006555456	-0.0033734958468	0.0061527854973	0.0110807005450	0.0044863222145	0.0031737785975	0.0180762931073	0.0199108196624
HGDP00588	-0.0025497340574	-0.0377588805178	-0.0031364671387	-0.0019560638043	-0.0000730587067	0.0125093072126	0.0056230256095	0.0005361165628	0.0280092495981	0.0364403986565
HGDP00602	-0.0017113832795	-0.0375023781255	-0.0027260605861	-0.0030786974132	0.0008731920781	0.0113729348185	0.0062256865013	-0.0007968817206	0.0160265838799	0.0194067237583
HGDP00682	-0.0057402940295	-0.0333530950618	-0.0026836196849	-0.0027589797826	0.0066190422220	0.0162476303725	0.0079100685254	0.0012306734252	0.0327144251813	0.0346688974844
HGDP00694	-0.0056454060428	-0.0343634307221	-0.0014430124199	-0.0043949315030	0.0047944055067	0.0170767229501	0.0063093922939	0.0031599312048	0.0270267598126	0.0317512716475
HGDP00725	-0.0055262175640	-0.0334256765949	-0.0017395398792	-0.0034214471264	0.0053915169930	0.0141347571077	0.0087830140600	0.0020946951417	0.0248040569021	0.0301841345251
HGDP00736	-0.0055058633490	-0.0331843549580	-0.0014147856294	-0.0048818803816	0.0052994854514	0.0117550346356	0.0092194367596	0.0016804017055	0.0205155876307	0.0263517567404
HGDP00001	0.0014519918716	-0.0262594499307	-0.0000508544756	0.0029361984379	-0.0102708583038	-0.0432191017310	-0.0339157907471	0.0018143944274	0.0124462959303	0.0158025586405
HGDP00025	0.0026594871413	-0.0267028785228	-0.0002346730130	0.0031811268324	-0.0102882950058	-0.0443746542547	-0.0325682411308	0.0018924744217	0.0141008562982	0.0159157233774
HGDP00049	0.0013217150997	-0.0265670809536	0.0003692643322	0.0039269199103	-0.0101127813421	-0.0442447863508	-0.0307216493925	0.0007307907421	0.0112002577344	0.0092710487471
HGDP00072	0.0017017858414	-0.0266943470547	-0.0008023633231	0.0032693456571	-0.0098114443192	-0.0444424925757	-0.0353288556065	0.0008891520541	0.0125399986450	0.0101716095316
HGDP00096	0.0016664384967	-0.0250995162995	0.0010022834503	0.0026453306763	-0.0103586683442	-0.0443549477289	-0.0345405059752	-0.0013917735103	0.0095439244776	0.0121182562602
HGDP00475	-0.0805294946193	0.0373373649653	-0.0062796115101	-0.0019819036526	-0.0605916914343	0.0078536642711	0.0018932211464	0.0002594858998	-0.0745083882052	0.0636424287162
HGDP00460	-0.0801344896989	0.0374276497167	-0.0058949366591	-0.0031274761992	-0.0655132933453	0.0092324882666	0.0032765369188	0.0010819363663	-0.0763631369323	0.0686875806775
HGDP01091	-0.0801242923960	0.0373904820589	-0.0059862919670	-0.0028341058085	-0.0745752898291	0.0110876915449	0.0034385991169	0.0020266712456	-0.0946168524129	0.0822908600543
HGDP00474	-0.0795875363347	0.0372903102768	-0.0064051047593	-0.0006827915479	-0.1408262772413	0.0235691123219	0.0102580938466	0.0005078438546	0.1300336088054	-0.0996646346225
HGDP00908	-0.0745934863621	0.0314819684386	-0.0045435973622	-0.0048913978610	0.0900838644806	-0.0190259769343	-0.0087330650646	-0.0008324205291	0.0027481234611	-0.0272254945098
HGDP01199	-0.0746797739253	0.0319700006772	-0.0044500421190	-0.0049459743600	0.0851620780988	-0.0172689729316	-0.0082302541534	-0.0016783635804	0.0003236093354	-0.0219078320478
HGDP00924	-0.0766444845442	0.0329777771334	-0.0044433889865	-0.0055740437931	0.0749087891231	-0.0171697013204	-0.0080936255826	-0.0013629608656	-0.0010347288136	-0.0249364848654
HGDP00936	-0.0767812779842	0.0332216923181	-0.0037530873932	-0.0050722719583	0.0779025497405	-0.0165529548692	-0.0088279008466	0.0000169623852	-0.0040588954266	-0.0197867229262
HGDP00643	-0.0055023841344	-0.0357024758173	-0.0024452379380	-0.0038109872050	0.0123674108436	0.0309961755537	0.0192656032611	0.0024652336164	0.0641733380038	0.0777594024580
HGDP00654	-0.0048975634262	-0.0327358133825	-0.0020348970069	-0.0028837356821	0.0050947347319	0.0102002149921	0.0056116664946	0.0028574712044	0.0213765484905	0.0269056653741
HGDP00566	-0.0024998071143	-0.0360152479193	-0.0021719844938	-0.0036670121052	0.0028164032871	0.0139727461396	0.0052831169559	0.0012549806036	0.0201406392381	0.0260380725523
HGDP00578	-0.0025279519255	-0.0354870766578	-0.0020325383408	-0.0024109741037	0.0025588772799	0.0145990269433	0.0077945732306	0.0039992511624	0.0225860809223	0.0267513156257
HGDP00590	-0.0012205909008	-0.0388795901298	-0.0030102482068	-0.0057271255204	0.0000835579999	0.0172978260460	0.0071760849524	0.0038663724357	0.0375037553687	0.0489304376902
HGDP00604	-0.0016882871295	-0.0376513724509	-0.0012052639940	-0.0042628810636	0.0003720097997	0.0126594522384	0.0078524956582	0.0018738046465	0.0279832077768	0.0380075516910
HGDP00684	-0.0059647686386	-0.0332878568040	-0.0009860387353	-0.0018306407984	0.0072036570666	0.0179557579329	0.0091449053985	0.0025591459334	0.0263396243514	0.0315574031500
HGDP00696	-0.0058449468607	-0.0340410334859	-0.0024109058440	-0.0031002681794	0.0058485051223	0.0139401590990	0.0080009333701	-0.0012150440578	0.0262406296044	0.0279428666976
HGDP00727	-0.0056606323402	-0.0347477449722	-0.0018158436470	-0.0025981046799	0.0059864616323	0.0165652972154	0.0068036751097	0.0018383354142	0.0251047578968	0.0301727883952
HGDP00738	-0.0114298584931	-0.0281276286469	-0.0017415474997	-0.0027427276687	0.0121688127316	0.0194643417947	0.0107704672878	0.0009004183031	0.0247475219718	0.0284913823057
HGDP00005	0.0026017078923	-0.0254651102951	-0.0001213289842	0.0025399965609	-0.0093729601247	-0.0463263933824	-0.0334906904163	0.0039780473775	0.0125977818686	0.0126520903992
HGDP00029	-0.0090156039975	-0.0167838205425	-0.0004199542719	0.0030673736339	-0.0012507233371	-0.0344598932778	-0.0275289500274	0.0003265607132	0.0090752893902	0.0069680980364
HGDP00054	0.0021258745710	-0.0286473328049	-0.0006952587946	0.0020723337715	-0.0100549502792	-0.0416224469513	-0.0308146750553	0.0009447289861	0.0121353350947	0.0130393654230
HGDP00076	-0.0056260855455	-0.0216643383987	-0.0004370698951	0.0015542180364	-0.0032831698101	-0.0345023352990	-0.0309792448131	0.0000121068360	0.0127621582163	0.0131044207945
HGDP00099	0.0146423347971	0.0011545724872	0.0132380273863	-0.0106444921470	-0.0033264350400	-0.0082531380258	-0.0091540898165	-0.0000557886034	-0.0061363938002	-0.0057397916752
HGDP00113	0.0137528390571	-0.0000819998466	0.0147500052923	-0.0093444693744	-0.0054641878032	-0.0149274181203	-0.0073293311364	-0.0024039243106	-0.0137046216263	-0.0145785242972
HGDP00477	-0.0810842575952	0.0379405621126	-0.0059326308118	-0.0031549095411	-0.0809386218355	0.0098754331604	0.0018060109208	-0.0004894791421	-0.1301386999470	0.1177309007236
HGDP00980	0.0021271820246	-0.0374994289211	-0.0060350583698	-0.0028766954756	-0.0053249671180	0.0180641976305	0.0141031865477	0.0022456669793	-0.0399281436629	-0.0438865815684
HGDP00476	-0.0800208553741	0.0381330738714	-0.0047285002323	-0.0015776833438	-0.1384030363925	0.0237469869689	0.0100359730809	0.0016096219670	0.1267448563065	-0.0993847801530
HGDP00909	-0.0752307005109	0.0315326982211	-0.0047124645928	-0.0043008035961	0.0875311755314	-0.0173411602172	-0.0070974115612	-0.0028202279556	-0.0014461442188	-0.0234075585580
HGDP01200	-0.0742546486361	0.0317967479530	-0.0054424665283	-0.0054090282609	0.0882879671878	-0.0165335939239	-0.0072158087824	-0.0027941008184	-0.0007960192783	-0.0251555096650
HGDP00925	-0.0766656465764	0.0333386785516	-0.0054097357765	-0.0062053276124	0.0967393850480	-0.0225853477972	-0.0112037070751	0.0011258462830	0.0071432267760	-0.0426303499913
HGDP00644	-0.0064575245762	-0.0325014833822	-0.0023527486539	-0.0027735980662	0.0079251184249	0.0152862910432	0.0106870765026	0.0009289712160	0.0258222625543	0.0301020183994
HGDP00701	-0.0060377600074	-0.0350804969763	-0.0018730804742	-0.0035518751822	0.0114657552865	0.0313464160120	0.0170561456147	0.0041582439447	0.0677872213352	0.0836516306404
HGDP00567	-0.0027713635122	-0.0374344179475	-0.0012093402945	-0.0028046511016	0.0025366526463	0.0153088891925	0.0057781377763	0.0018927293991	0.0289866593553	0.0372639929178
HGDP00579	-0.0019361431710	-0.0365860843238	-0.0017518082536	-0.0027104359359	0.0020264434559	0.0166846451696	0.0064911278131	0.0013142618286	0.0174281181009	0.0221861773624
HGDP00591	-0.0023213765357	-0.0371045688766	-0.0030958985429	-0.0028316430215	0.0015505146143	0.0156596391486	0.0061053163482	0.0010821497679	0.0252510183515	0.0332490628529
HGDP00605	-0.0014582094614	-0.0379954538102	-0.0027754497796	-0.0054219461500	0.0015252132320	0.0195937220083	0.0064561484831	0.0018025336622	0.0357719846023	0.0468661927943
HGDP00685	-0.0094174481541	-0.0313853584984	-0.0023379306829	-0.0045084520271	0.0116670838908	0.0177541450293	0.0081873309383	0.0021467820341	0.0294000827291	0.0333623296465
HGDP00560	-0.0019918429097	-0.0373194391407	-0.0024638709819	-0.0021655047482	0.0007117219388	0.0137850372012	0.0056484844352	0.0002589884722	0.0228091819365	0.0320298385524
HGDP00728	-0.0054865181356	-0.0338462417168	-0.0024956725387	-0.0029318848866	0.0060579649949	0.0152111429028	0.0060519007701	-0.0015723971364	0.0216524169836	0.0274660318726
HGDP00739	-0.0084463535838	-0.0306647804457	-0.0024949259141	-0.0033715505893	0.0098580269626	0.0120432201235	0.0070720914728	0.0026323448936	0.0258015006096	0.0282959212895
HGDP00007	0.0020288283252	-0.0269924151279	0.0006432334592	0.0017083033742	-0.0112553787256	-0.0446383904217	-0.0328988363613	0.0022674381254	0.0114193614689	0.0148241144853
HGDP00031	0.0022552016808	-0.0255115722760	-0.0001214092708	0.0039106895530	-0.0099884267816	-0.0450134744404	-0.0351892605855	0.0008377728526	0.0110926456098	0.0091353466900
HGDP00056	0.0036863527703	-0.0222796052095	0.0026745318643	0.0051594214121	-0.0088167505071	-0.0442345512211	-0.0343933991890	0.0035852546607	0.0078644883983	0.0088237603906
HGDP00078	-0.0009643524345	-0.0252107417627	-0.0002153483252	0.0008662943606	-0.0070141269291	-0.0375072817080	-0.0306275283085	0.0019642801855	0.0101957267134	0.0108233962025
HGDP00100	0.0121553805427	-0.0051644717731	0.0111869165758	-0.0095297091457	-0.0056406160806	-0.0131690577315	-0.0103734872827	0.0004996237099	-0.0045913548987	-0.0066261692294
HGDP00686	-0.0071835562262	-0.0310322916868	-0.0013784814715	-0.0044302131156	0.0077798917750	0.0137545389155	0.0091495324684	0.0016797666714	0.0217283786880	0.0244201975400
HGDP01093	-0.0816101112051	0.0380403945682	-0.0064333793194	-0.0031753149652	-0.0892698839133	0.0105938173736	0.0021197372910	0.0001785087621	-0.1526094140430	0.1368060195258
HGDP00478	-0.0795791374213	0.0371476561589	-0.0054724107725	-0.0005483140962	-0.1399451074274	0.0234741595555	0.0085909323435	-0.0000797879021	0.1264093678719	-0.1004866746323
HGDP00910	-0.0744723685315	0.0313866798700	-0.0051830949726	-0.0061350381888	0.0851640793958	-0.0150436801297	-0.0066137081290	-0.0011166352897	-0.0024365844972	-0.0267805589754
HGDP00926	-0.0761786404432	0.0325195553406	-0.0028525431074	-0.0051644394235	0.0762560810033	-0.0162081478487	-0.0069823534723	-0.0002136093331	-0.0013067217443	-0.0230582537114
HGDP00988	-0.0748045303065	0.0336718733694	-0.0042722992559	0.0001810715904	-0.1046112691580	0.0179620455828	0.0086955141577	0.0003305041653	0.0405045444494	-0.0184970275858
HGDP01035	-0.0759375149610	0.0323332453297	-0.0048972423796	-0.0043191641205	0.0477310284384	-0.0097470257048	-0.0042234124576	-0.0015537068808	-0.0013754266969	-0.0169584077707
HGDP01262	-0.0184189595776	-0.0227258237363	-0.0019666810419	-0.0058379799594	0.0284479165206	0.0342050664820	0.0245709913413	-0.0016780241610	0.0200768315063	0.0180197755746
HGDP01274	-0.0228460901821	-0.0193547684857	-0.0025629937562	-0.0054089927913	0.0364785888123	0.0353149460119	0.0263433211651	0.0035987547487	0.0184287514811	0.0176335883715
HGDP00610	-0.0068813217340	-0.0353650149707	-0.0014049817183	-0.0036042454914	0.0134006888648	0.0305848350429	0.0185142480785	0.0065617312427	0.0691212878681	0.0839073395650
HGDP00622	-0.0076167531093	-0.0324254882674	-0.0023636321280	-0.0043347045720	0.0093679418461	0.0171419076729	0.0086454724299	0.0025944277837	0.0304981866107	0.0365216315453
HGDP00568	-0.0017271538334	-0.0374302696655	-0.0028124624600	-0.0051301501954	0.0015946993073	0.0128696178366	0.0035495358427	0.0005379403517	0.0269420221112	0.0399111410943
HGDP00580	-0.0022135509068	-0.0362467792449	-0.0018202054560	-0.0020847809167	0.0009898760324	0.0116151399971	0.0089543035163	-0.0012830154931	0.0180170688328	0.0240072407032
HGDP00592	-0.0014750580149	-0.0370525452952	-0.0029865157164	-0.0028387365633	0.0025311323952	0.0137728663098	0.0065311116333	0.0017118790475	0.0254734344973	0.0360400213883
HGDP00606	-0.0030776953025	-0.0365955803584	-0.0023503584347	-0.0011188358981	0.0018929159286	0.0150509997386	0.0078402792780	0.0005626602893	0.0194611789742	0.0235303730771
HGDP00699	-0.0065329501138	-0.0331676514911	-0.0021664149377	-0.0043030104075	0.0055266519155	0.0150511353244	0.0056752645458	0.0006943799182	0.0207910965922	0.0260276358610
HGDP00731	-0.0088349372356	-0.0305764765871	-0.0010795961397	-0.0027223058367	0.0112981109060	0.0176778353953	0.0121862861335	0.0006171569787	0.0289868928994	0.0324399725888
HGDP00743	-0.0066018079488	-0.0319268723279	-0.0017325489338	-0.0023783010350	0.0068518363820	0.0162068496856	0.0083120388238	0.0022581024061	0.0328766399413	0.0338712023270
HGDP00015	0.0017395420257	-0.0275295383237	0.0014357110246	0.0011343056023	-0.0085699534013	-0.0461333557016	-0.0359514103795	0.0030851401350	0.0123148979051	0.0110635643686
HGDP00039	0.0009183041461	-0.0224808322799	0.0016083259308	0.0055458651961	-0.0089838849649	-0.0418575582783	-0.0343541623684	-0.0001330210270	0.0097979333462	0.0099027571362
HGDP00062	0.0007709318189	-0.0270671780850	-0.0000323763153	0.0041405552122	-0.0082157460111	-0.0381916590536	-0.0304096988741	0.0034235268438	0.0119870847316	0.0151241931479
HGDP00086	0.0023807517884	-0.0275112697264	-0.0007467410529	0.0024268850386	-0.0103734544831	-0.0460774717525	-0.0369328519215	0.0004115360222	0.0127558764838	0.0138194755914
HGDP00105	0.0142199691564	0.0020193186278	0.0149436687321	-0.0120807077053	-0.0034493966651	-0.0113422933899	-0.0047153256632	-0.0013714350461	-0.0027925125396	-0.0059071569332
HGDP00700	-0.0075576776598	-0.0315626416357	-0.0032008645362	-0.0041662828496	0.0087952591381	0.0173742799761	0.0084712670271	-0.0003660852852	0.0226039879984	0.0253484135247
HGDP00732	-0.0059993001462	-0.0352055514342	-0.0024618635225	-0.0022802304065	0.0073444663309	0.0179509636707	0.0071625695307	-0.0009518041037	0.0285595038087	0.0351206448883
HGDP00744	-0.0113506833538	-0.0281597886069	-0.0024798653127	-0.0038363811995	0.0114597059071	0.0154532180254	0.0104367430838	0.0004062072708	0.0260717501491	0.0264436147824
HGDP00017	0.0020036883695	-0.0268811087111	0.0002545927889	0.0052252033398	-0.0105554053729	-0.0450948228004	-0.0365471409651	-0.0001566167925	0.0116767825974	0.0107043414443
HGDP00041	0.0029472184097	-0.0271354874803	0.0003486590702	0.0021722820178	-0.0116007312912	-0.0419532023214	-0.0320224649541	0.0001526222330	0.0079798857266	0.0054457084046
HGDP00064	0.0016158673983	-0.0273578436271	-0.0012014855071	0.0013012142833	-0.0076045605021	-0.0392559733780	-0.0313890711765	0.0022892782088	0.0139676272543	0.0183503900211
HGDP00088	0.0019085305485	-0.0265718512287	-0.0008095770002	0.0024072130059	-0.0099247094439	-0.0415414276206	-0.0351015117274	0.0068911106973	0.0121944178740	0.0133100987760
HGDP00106	0.0136582820298	-0.0004807784606	0.0151101218758	-0.0106342611067	-0.0055862515045	-0.0149786155869	-0.0090986585312	-0.0030516349164	-0.0129893108199	-0.0149014533821
HGDP00119	0.0127960605559	-0.0027755828336	0.0122501992531	-0.0085135834840	-0.0045216155339	-0.0153756697006	-0.0097441921449	-0.0000071870045	-0.0062898054868	-0.0059721107378
HGDP00131	0.0004512540750	-0.0267933446021	-0.0005068307333	0.0035454707877	-0.0078790716742	-0.0396864453661	-0.0316719846834	0.0007893078118	0.0149861915015	0.0141934519393
HGDP00146	-0.0001417747754	-0.0282083921972	-0.0006795395106	0.0012603698586	-0.0054270687175	-0.0367126661210	-0.0283516208878	0.0017019028005	0.0139083980475	0.0124868370341
HGDP00163	-0.0000972560649	-0.0192458597198	0.0024174546937	0.0071064690358	-0.0088423615289	-0.0498937021434	-0.0364047858511	-0.0004213090484	0.0077860865317	0.0094780770800
HGDP00187	0.0043377939378	-0.0209603510915	0.0019488197785	0.0045229374014	-0.0124685271515	-0.0442568944089	-0.0356854117230	0.0008525221564	0.0017050665121	0.0035588649280
HGDP00210	0.0043838128159	-0.0203254262560	0.0020519700634	0.0050992341755	-0.0102797577456	-0.0446716068631	-0.0358555458661	0.0012817136301	0.0034857246835	0.0024955950563
HGDP00234	0.0052421856022	-0.0220116868276	0.0010101710221	0.0035615620480	-0.0110108756606	-0.0401398061175	-0.0320841304589	0.0012414533374	-0.0005521960551	-0.0013113848802
HGDP00262	0.0042195360974	-0.0233720334855	0.0019060021556	0.0030678664657	-0.0098420951220	-0.0374987320833	-0.0283724293560	-0.0012006680702	-0.0011911806985	-0.0000830681616
HGDP00290	0.0048988106732	-0.0244981726802	-0.0007881209610	0.0049747778281	-0.0181660576761	-0.0739621451179	-0.0521311369406	-0.0010502245060	-0.0111198412543	-0.0155792013133
HGDP00321	0.0046336600576	-0.0243741121934	-0.0006217605600	0.0041476351443	-0.0199880783246	-0.0859491597161	-0.0650225551017	0.0001780660187	-0.0149559366872	-0.0191589856728
HGDP00356	0.0069321687990	-0.0164967295183	0.0041155207681	0.0037026325664	-0.0103704867872	-0.0413807623896	-0.0296307194061	0.0012808931683	-0.0028246312384	-0.0038383307351
HGDP00412	0.0071195416444	-0.0161267218427	0.0041211969969	0.0044537368598	-0.0099435329379	-0.0389664018115	-0.0286090223079	-0.0003596053771	-0.0025409085218	-0.0035464238462
HGDP00973	0.0257167039816	0.0339971055472	0.0382788847789	-0.0224218514242	0.0019465588648	0.0097212541378	-0.0019478362636	0.0008814888959	0.0070324733394	0.0090278495538
HGDP00777	0.0252764185203	0.0316641854946	0.0354499789599	-0.0226680203796	-0.0002814599228	0.0065618167439	0.0003703538201	-0.0001616742495	0.0022870933077	0.0022227421880
HGDP00820	0.0256185301072	0.0328414150850	0.0382807396699	-0.0212640401792	0.0004163322584	0.0079257976968	0.0018733801726	0.0037829193644	0.0035221423079	0.0059900353083
HGDP01291	0.0250321481291	0.0310812342834	0.0366848886533	-0.0220764614295	0.0015756630537	0.0068227631192	0.0008219202166	0.0033603137572	0.0010981852624	0.0003771550330
HGDP00722	-0.0061404255425	-0.0323400440825	-0.0016569474228	-0.0033190065989	0.0059952739161	0.0155479617911	0.0063707249139	-0.0008581866527	0.0213485352841	0.0227416761159
HGDP00733	-0.0051815330586	-0.0338677943142	-0.0028905385042	-0.0036504884263	0.0061523765462	0.0179187040578	0.0080835509612	0.0009547381088	0.0298703709901	0.0341687339142
HGDP00745	-0.0054345083675	-0.0319141899703	-0.0017987134797	-0.0032502638192	0.0049046313321	0.0135183581674	0.0077522943504	0.0015452141906	0.0236816385431	0.0269993894375
HGDP00019	0.0027770999399	-0.0248648837021	-0.0006998190422	0.0027971202736	-0.0086042946791	-0.0373186091259	-0.0263097023901	0.0007531400389	0.0082750361804	0.0107213078303
HGDP00043	-0.0007924334831	-0.0247820656407	-0.0004625108613	0.0039916397973	-0.0102432849244	-0.0432731678274	-0.0340463762047	0.0018748283645	0.0107698855784	0.0128009851938
HGDP00066	0.0019498828534	-0.0267245687401	-0.0005588284791	0.0035246603092	-0.0103323003231	-0.0446618747671	-0.0329220896241	0.0013489912234	0.0118634030695	0.0120735815457
HGDP00090	0.0016386991601	-0.0236855852884	0.0014631938715	0.0012682861259	-0.0102521978063	-0.0478144807202	-0.0371148783103	0.0000173170017	0.0099954208734	0.0066896842912
HGDP00108	0.0140320027979	0.0009563676568	0.0154503697663	-0.0123148351185	-0.0049061855915	-0.0117986127690	-0.0050427877116	-0.0009296185967	-0.0091347707259	-0.0101727311656
HGDP00120	0.0135103941165	-0.0007770067305	0.0141394651045	-0.0115965311203	-0.0058555832001	-0.0135330109470	-0.0082694141729	-0.0000549946827	-0.0049234153394	-0.0059770459142
HGDP00133	0.0006748272589	-0.0272418197860	-0.0000458369215	0.0018446074690	-0.0092448282859	-0.0393218119782	-0.0344066006488	0.0015776862999	0.0143432687214	0.0143413174526
HGDP00148	-0.0010499237522	-0.0251677322252	-0.0006653092128	0.0018888679685	-0.0073560782484	-0.0427324241928	-0.0306794187547	0.0015226203845	0.0151173957213	0.0158486726060
HGDP00165	0.0018999409117	-0.0180463963216	0.0029089928548	0.0052772223464	-0.0088436543387	-0.0482166660618	-0.0364728780469	0.0004717807734	0.0070507155284	0.0059472456190
HGDP00189	0.0046111150132	-0.0210657889194	0.0020536319217	0.0059826557026	-0.0096949683754	-0.0440998370040	-0.0334848128720	0.0025460243433	0.0025146638588	0.0008878497329
HGDP00213	0.0044625321936	-0.0245845594748	-0.0001518880545	0.0047328354117	-0.0112523145329	-0.0388518228336	-0.0273712885908	0.0012649977065	-0.0016882671169	-0.0015799400268
HGDP00237	0.0048691612314	-0.0183345565399	0.0046434204168	0.0060930405500	-0.0103645741814	-0.0424269046998	-0.0328334519800	0.0001331687534	0.0013104540125	-0.0007794536220
HGDP00264	0.0047631771674	-0.0216403176987	0.0005917905742	0.0026725332057	-0.0107861615907	-0.0407686346437	-0.0276452615691	-0.0000745864530	-0.0014792785722	-0.0004322524329
HGDP00292	0.0047897660527	-0.0254339562880	-0.0006820785587	0.0053794935647	-0.0198066753106	-0.0863733481103	-0.0607469982234	0.0001836516586	-0.0144552807724	-0.0212822059813
HGDP00323	0.0045603682915	-0.0257475301176	-0.0011001516874	0.0041460139133	-0.0175715344403	-0.0782809205451	-0.0572051869755	-0.0004953934747	-0.0119515801243	-0.0171281520623
HGDP00359	0.0068099489891	-0.0162346434360	0.0044773594339	0.0030766560485	-0.0108682771025	-0.0422401466732	-0.0312046836416	0.0000642999596	0.0016502385298	0.0003126729840
HGDP00417	0.0066955905568	-0.0159205367847	0.0034203151003	0.0024921201192	-0.0105727078673	-0.0422151458069	-0.0290511225244	-0.0000644056545	-0.0017111802044	-0.0015229839651
HGDP01021	0.0258323097112	0.0335625871854	0.0389325648963	-0.0228978830134	0.0020191002472	0.0126125630094	0.0010748745680	0.0024427713886	0.0057999135714	0.0064078381505
HGDP00778	0.0252465879933	0.0330400572719	0.0369807000130	-0.0220570906546	0.0011169597227	0.0114668430256	-0.0007297025110	-0.0005371602873	0.0021891260190	0.0053725347728
HGDP00821	0.0250223241703	0.0330178607623	0.0393086555930	-0.0187414266400	0.0017828659512	0.0107732320804	0.0016715716622	0.0032158159762	0.0057098437265	0.0069847713523
HGDP01292	0.0256528779591	0.0321826956926	0.0365708737485	-0.0229083940561	0.0013299919663	0.0073342137828	0.0007410125246	0.0019424545239	0.0026385096552	0.0020426172092
HGDP00723	-0.0081803952982	-0.0307683246355	-0.0022343408211	-0.0043020372880	0.0094017962130	0.0159669962147	0.0061136441279	0.0026064134181	0.0294335448131	0.0292786128401
HGDP00734	-0.0057789338379	-0.0327910435148	-0.0019755618914	-0.0031384840677	0.0060034317072	0.0144854519419	0.0055838327156	0.0014688973862	0.0236244747042	0.0282797004121
HGDP00746	-0.0075676940798	-0.0332732428536	-0.0009211490572	-0.0040028614302	0.0087691583402	0.0161298057199	0.0082658779133	-0.0003377106665	0.0273838723191	0.0340073561095
HGDP00021	-0.0002971390593	-0.0260158512219	0.0000587263514	0.0047220401426	-0.0079977804481	-0.0441575872681	-0.0345984840189	0.0025775959713	0.0117404360492	0.0102802655820
HGDP00045	0.0021932444643	-0.0271102208040	-0.0000931622827	0.0025955545100	-0.0121941754644	-0.0458858884491	-0.0347781629800	0.0029975774110	0.0129624370153	0.0123795173337
HGDP00068	0.0038701251911	-0.0234041175065	0.0022114387594	0.0023372383295	-0.0105439175004	-0.0399251273201	-0.0264881751802	0.0022358677528	0.0066466000470	0.0090542416183
HGDP00092	0.0024280361795	-0.0240706862160	0.0013227959039	0.0055262667549	-0.0091429365338	-0.0437365552537	-0.0363565846950	0.0022893580750	0.0131135681032	0.0126621671278
HGDP00109	0.0138974042883	0.0004755009965	0.0134979042409	-0.0092317769582	-0.0054967352735	-0.0132289230368	-0.0060175915792	-0.0001319083760	-0.0062959821865	-0.0078587757232
HGDP00121	0.0142796184580	0.0011086486912	0.0166864814559	-0.0092938635841	-0.0036483568797	-0.0118483803153	-0.0085234363863	-0.0005778989828	-0.0052303397983	-0.0066801511231
HGDP00134	-0.0028872294794	-0.0246481774807	-0.0000271161571	0.0015287418288	-0.0076338259853	-0.0375637469976	-0.0302806023727	-0.0014463417244	0.0136602998837	0.0160354723996
HGDP00149	-0.0013262644775	-0.0187623524903	0.0027465115231	0.0038746796713	-0.0062879681595	-0.0418587940891	-0.0327817029357	-0.0002908902419	0.0077704611604	0.0064918026909
HGDP00167	0.0037412831537	-0.0200651072120	0.0030153736376	0.0062310344111	-0.0104528025872	-0.0481619951658	-0.0384941293574	0.0000544899805	0.0063721412416	0.0081243323719
HGDP00191	0.0049942294027	-0.0217945800389	0.0022141631599	0.0040635508384	-0.0117309703660	-0.0422439802038	-0.0336872203870	0.0009516936201	-0.0007467398621	0.0017643195512
HGDP00214	0.0035195106524	-0.0241443047988	0.0008227476968	-0.0004218442712	-0.0092309911133	-0.0313465349703	-0.0226879810098	0.0012612124503	0.0034261504009	0.0038310501212
HGDP00239	0.0051530207063	-0.0177783597212	0.0050250291565	0.0076093065115	-0.0115340127904	-0.0475441551722	-0.0357107650249	-0.0030547947361	0.0061101842086	0.0052344469630
HGDP00009	0.0018168312629	-0.0268502365206	0.0003195663981	0.0024658308346	-0.0086594423762	-0.0403615349463	-0.0336085466542	0.0014763792301	0.0100143242525	0.0133998647466
HGDP00298	0.0046269055086	-0.0243418670822	0.0000839086856	0.0042910261703	-0.0171638248433	-0.0734949529552	-0.0526380118487	0.0020092448607	-0.0095345837377	-0.0150046305933
HGDP00326	0.0049859936228	-0.0244031048491	0.0005442057575	0.0038612925946	-0.0191751959732	-0.0844829449217	-0.0601113601707	0.0007402423266	-0.0107675162436	-0.0155418161200
HGDP00364	0.0063978675941	-0.0175779167609	0.0044753460619	0.0033807790767	-0.0114668363594	-0.0414403939068	-0.0311525900330	-0.0014329314005	-0.0009516750574	-0.0003261058711
HGDP00423	0.0067169242639	-0.0163079208248	0.0041297206162	0.0023860820529	-0.0105612175087	-0.0407125300198	-0.0321923533973	0.0006008429750	-0.0020892124141	-0.0026245475196
HGDP00775	0.0255167225974	0.0331809690907	0.0391800227043	-0.0236236129473	0.0014287666617	0.0088726714761	0.0004588117397	0.0024220585446	0.0027360168079	0.0051780419477
HGDP00780	0.0244965592843	0.0324645282044	0.0375371101744	-0.0231463524633	0.0011582624057	0.0096355636132	0.0008573588241	0.0060035206452	0.0029721898570	0.0048957400284
HGDP00822	0.0253038004196	0.0334361436008	0.0387767595408	-0.0237405886570	0.0009382081930	0.0106207680926	0.0021367938627	0.0012858623752	0.0024939768247	0.0039466643488
HGDP01293	0.0245272108411	0.0312054339181	0.0359306802754	-0.0226156353328	0.0018502883894	0.0094984522301	0.0034878846360	0.0038330887306	0.0034426452973	0.0035518222690
HGDP00724	-0.0065206875767	-0.0335085736388	-0.0015594099392	-0.0016492268712	0.0070021818905	0.0137016983578	0.0059057622652	0.0001808995247	0.0264624554667	0.0288255551365
HGDP00735	-0.0060176758446	-0.0336598003730	-0.0014173695284	-0.0049919969533	0.0065068091285	0.0176843997384	0.0065786716490	0.0009917337496	0.0272250373093	0.0340706734374
HGDP00047	-0.0015917238360	-0.0247554301479	-0.0000672944233	0.0033371976088	-0.0064250555541	-0.0359554090843	-0.0296742863834	0.0020936599899	0.0124736099370	0.0133945992056
HGDP00070	0.0061687290781	-0.0146244506552	0.0058737111804	0.0085428305214	-0.0101337634097	-0.0475692917078	-0.0350235852947	0.0024395369652	0.0033062647598	0.0030653939735
HGDP00094	0.0021676937025	-0.0249200279928	0.0005767239999	0.0039302922892	-0.0100190407789	-0.0414609346664	-0.0347866905814	0.0026499933742	0.0087973254995	0.0070768932121
HGDP00110	0.0132792618396	-0.0010916389655	0.0136558037492	-0.0102987143513	-0.0050571090744	-0.0149799197603	-0.0077275158420	-0.0035577342637	-0.0062103548080	-0.0058962678709
HGDP00740	-0.0052982733716	-0.0338214211894	-0.0022522788988	-0.0040072466537	0.0059403077618	0.0147582810595	0.0094252740668	0.0003839548078	0.0247480767351	0.0294892770963
HGDP00122	0.0143279207820	0.0008483246488	0.0148189466014	-0.0084548038703	-0.0041423972176	-0.0134090524793	-0.0088954363933	-0.0025215698756	-0.0057969660128	-0.0084785812146
HGDP00135	0.0017636307444	-0.0279622714288	-0.0003999081539	0.0027396216263	-0.0100997792051	-0.0422817155822	-0.0324252699125	0.0010506508776	0.0103333193544	0.0129966889769
HGDP00150	-0.0137956085907	-0.0145503224962	-0.0004412920861	0.0001547393338	0.0048849732481	-0.0318502410313	-0.0251825061449	0.0008493924144	0.0113141143008	0.0095126142276
HGDP00169	0.0042176631397	-0.0198809375020	0.0029745837403	0.0062954857983	-0.0124853235669	-0.0478218937561	-0.0371732589387	0.0037481142257	0.0029419262536	0.0035008413855
HGDP00192	0.0041325813097	-0.0205093363804	0.0023755653124	0.0056047274434	-0.0116424816959	-0.0496155774757	-0.0377007167193	0.0011677947758	0.0020167995298	0.0020933544842
HGDP00216	0.0049224863513	-0.0220995030752	0.0011318238281	0.0042303373929	-0.0106165649737	-0.0390897845206	-0.0296482318378	0.0011952887547	0.0010772874857	-0.0000776004670
HGDP00241	0.0043969157721	-0.0241613328348	0.0007174012041	0.0044484286962	-0.0108496052549	-0.0383686726785	-0.0297860639138	0.0025817185666	0.0007300104444	-0.0000594792541
HGDP00267	0.0046431742225	-0.0249393665749	-0.0000229603395	0.0030809363229	-0.0194515714395	-0.0814105938078	-0.0607842855956	-0.0011385293794	-0.0152736543206	-0.0191497498835
HGDP00302	0.0050584822697	-0.0239680382644	0.0000020782169	0.0043198865006	-0.0175754927175	-0.0709961343352	-0.0527961942283	0.0021757697545	-0.0093654141253	-0.0146064394400
HGDP00328	0.0046898871229	-0.0246340421060	-0.0014415509604	0.0041264714741	-0.0196229232144	-0.0811552563986	-0.0611918311543	-0.0000391187676	-0.0117461517082	-0.0175831123282
HGDP00371	0.0069879859125	-0.0151751517748	0.0038568786830	0.0027061040377	-0.0117008810055	-0.0426070332171	-0.0286230930500	0.0012761867318	-0.0048568622397	-0.0061639685850
HGDP00428	0.0065157911165	-0.0172627939850	0.0043630139326	0.0009492326168	-0.0121388999189	-0.0404443861353	-0.0294567253297	0.0005801330686	-0.0030327901570	-0.0037016345844
HGDP00779	0.0255731651443	0.0331978470111	0.0373336213350	-0.0222424928363	0.0023782955412	0.0096303381004	0.0024154432447	0.0019095920617	0.0024988124938	0.0046956679611
HGDP00781	0.0244419295709	0.0334733706882	0.0389961905187	-0.0213557885933	0.0019905098541	0.0085015808548	0.0022987425485	0.0002703454509	0.0044011925342	0.0080206170742
HGDP00972	0.0260483893986	0.0333927091396	0.0380258146365	-0.0230228102096	0.0032729774124	0.0104401642358	0.0034721197437	0.0040237950124	0.0053256992980	0.0045082123604
HGDP01294	0.0245732246900	0.0311699797532	0.0375924154054	-0.0222363015863	0.0010749218699	0.0064638701950	0.0007248517601	-0.0000109898080	0.0019683292095	0.0022955245798
HGDP01201	-0.0747977987476	0.0317456863700	-0.0042435368826	-0.0043561018245	0.0888751676137	-0.0188943786621	-0.0066389088524	-0.0010560075560	0.0002539756401	-0.0300288712856
HGDP01101	0.0250056331683	0.0330703185831	0.0379904898854	-0.0233782316418	0.0017907164746	0.0112032851316	0.0026836535808	0.0054902807485	0.0034693154176	0.0043643547566
HGDP01186	0.0242460806725	0.0319037550368	0.0358709129585	-0.0188420294799	0.0018053048177	0.0058374524726	-0.0007881786595	0.0010169525434	0.0052959087581	0.0056845390649
HGDP01198	0.0254517677729	0.0327233316785	0.0378074156302	-0.0191028400310	0.0022721869614	0.0098917848109	0.0013499238530	0.0049148166394	0.0051544623797	0.0079092276146
HGDP01213	0.0251973840063	0.0303147721726	0.0318729180812	-0.0236294006386	0.0011276608734	0.0072211729497	0.0045577636373	0.0002489287501	-0.0039847118545	-0.0067120990984
HGDP01225	0.0249174069093	0.0300879383052	0.0331716853205	-0.0229074780185	0.0011123996658	0.0081873209038	0.0022108558065	-0.0010184536045	0.0000193915851	-0.0001933770378
HGDP01237	0.0253735402381	0.0318260606666	0.0293626726121	-0.0242526365876	0.0007241480503	0.0059512202778	0.0058435740166	-0.0004651520030	-0.0064703242605	-0.0083385364972
HGDP01249	0.0247386601636	0.0300049561938	0.0326054888404	-0.0219829807346	0.0004761373537	0.0050169331919	0.0008286586717	-0.0005846549642	-0.0014944467986	-0.0023123970879
HGDP01305	0.0150028201212	0.0037078401867	0.0149188061972	-0.0114136364716	-0.0037522441929	-0.0048318642959	-0.0041877744424	0.0021022992299	-0.0057034932345	-0.0065583689994
HGDP01102	0.0250306206318	0.0339841388711	0.0376157767707	-0.0227555362090	0.0016998420069	0.0102393340937	0.0017191718734	0.0038992775123	0.0041287204068	0.0040292568683
HGDP01187	0.0251836506923	0.0330687832460	0.0381946695540	-0.0213382840814	0.0020273599038	0.0107031161610	0.0021386775622	0.0022471572561	0.0037818879797	0.0037520802754
HGDP01214	0.0245433479957	0.0286695482323	0.0301909662122	-0.0220883001744	0.0006372918979	0.0046623544480	0.0028507995926	-0.0015621067833	-0.0030278587563	-0.0032610056834
HGDP01226	0.0228814246369	0.0232740005562	0.0249362858431	-0.0189692359373	-0.0008760104153	0.0018495271245	0.0007763365636	-0.0009198078591	-0.0112428175646	-0.0132749032963
HGDP01238	0.0249565231403	0.0295650740386	0.0317359910877	-0.0211818301161	-0.0003398158222	0.0060373132904	0.0030113879380	-0.0022517547856	-0.0049121490082	-0.0050858099202
HGDP01250	0.0240513066886	0.0290037533953	0.0327260229763	-0.0224881913815	-0.0001720601978	0.0076262990665	0.0024588091484	-0.0011856400212	-0.0027233086937	-0.0014538849940
HGDP01306	0.0142144415419	0.0010615491345	0.0138607179464	-0.0096684209701	-0.0042281958188	-0.0086882623297	-0.0052605099368	0.0007219106300	-0.0094504948711	-0.0096265601391
HGDP00102	0.0143018345548	0.0010540249047	0.0154417638499	-0.0108581349432	-0.0039025991022	-0.0103961293556	-0.0082790389246	-0.0029640599316	-0.0065503366023	-0.0077680878137
HGDP01100	0.0247667770260	0.0327140341333	0.0379776285079	-0.0214567146578	0.0019241063259	0.0110139081851	0.0008716931621	0.0030286707249	0.0038885879168	0.0046887428772
HGDP01185	0.0248665391340	0.0315885597852	0.0365408877912	-0.0210257612445	0.0011167110885	0.0057479931412	0.0008827228703	0.0010738044333	0.0026930966599	0.0040094061912
HGDP01197	0.0251218357751	0.0329698513341	0.0389290210399	-0.0231163959221	0.0021911750886	0.0105878209337	0.0008926623240	0.0018918245360	0.0046273615504	0.0054803257713
HGDP01212	0.0246193987481	0.0290881304329	0.0311682879230	-0.0218649763376	0.0001306244707	0.0065635359656	0.0033895658559	-0.0002840061847	-0.0056118668604	-0.0084301092821
HGDP01224	0.0244652056111	0.0294026820666	0.0323026988962	-0.0231924262962	-0.0002124742893	0.0048389554731	0.0015674059497	0.0035899209808	-0.0005527812581	-0.0023985031229
HGDP01236	0.0255927208303	0.0325032801710	0.0325515100171	-0.0207893531558	0.0006784169534	0.0070315585524	0.0030161312545	-0.0006158046351	-0.0023102761010	-0.0025997089739
HGDP01248	0.0237810021816	0.0281418893159	0.0319540579047	-0.0209249758597	0.0005013727468	0.0039332394720	0.0029808828096	0.0002467486207	-0.0043591611341	-0.0051519127336
HGDP01304	0.0155893508692	0.0042588275123	0.0167599726511	-0.0140517752396	-0.0034393894993	-0.0062229426507	-0.0032179315762	0.0014979676776	-0.0047964273856	-0.0047499997914
HGDP00726	-0.0065844641309	-0.0327231838105	-0.0017300802183	-0.0031947448132	0.0071585362363	0.0128592752337	0.0058595542475	0.0012648188133	0.0295273544151	0.0326186267418
HGDP00737	-0.0059393522954	-0.0340454304642	-0.0019526673840	-0.0025587431927	0.0087455446499	0.0175003937978	0.0098932712496	0.0000918879328	0.0284164259177	0.0343020662551
HGDP00003	0.0021159386831	-0.0266429959758	0.0012925106317	0.0040837616095	-0.0099636173757	-0.0447563514884	-0.0343737084631	0.0029243598118	0.0132518963862	0.0114407153674
HGDP00027	0.0007416497092	-0.0246944449541	-0.0004871684600	0.0031103444095	-0.0082754694578	-0.0438112650200	-0.0339343660451	0.0020734524336	0.0096521123559	0.0100238834695
HGDP00052	0.0022029144135	-0.0269906219602	-0.0001555382311	0.0029149159500	-0.0098877659514	-0.0459382963445	-0.0337464870034	0.0009221836155	0.0120198674139	0.0144317113036
HGDP00074	0.0021888002368	-0.0273424596725	0.0008575877677	0.0016464583718	-0.0090246707085	-0.0420244734071	-0.0372490454353	0.0010722565927	0.0154353798870	0.0164737493282
HGDP00098	-0.0000761826638	-0.0237348630619	0.0012993398738	0.0024636310523	-0.0074093055150	-0.0432307604041	-0.0314864333333	-0.0004397891185	0.0081868568666	0.0067904188363
HGDP00112	0.0150185354563	0.0039609203636	0.0153933596846	-0.0129191861671	-0.0039266560010	-0.0087484767527	-0.0077374161143	-0.0009974766035	-0.0066335257010	-0.0082282645216
HGDP00125	0.0136545023767	0.0010144066860	0.0154983154455	-0.0109845546435	-0.0046687147156	-0.0114639887381	-0.0081428340230	-0.0026712950437	-0.0045581442050	-0.0079853270597
HGDP00137	0.0001646292100	-0.0268001753474	-0.0007905947287	0.0044137047397	-0.0083659983703	-0.0393176754640	-0.0336915725829	-0.0005688789652	0.0133482637949	0.0149011452156
HGDP00153	-0.0045126961809	-0.0237765904846	0.0004211990071	0.0014231977613	-0.0046495586837	-0.0360404386172	-0.0318509088307	-0.0004534547689	0.0139838760194	0.0132258138026
HGDP00173	-0.0073901265673	-0.0134740819318	0.0006405688887	0.0046888386080	-0.0006006234244	-0.0416651913549	-0.0334483632995	0.0013812634004	0.0041610717559	0.0042246912112
HGDP00197	0.0048967094877	-0.0207417279940	0.0022677509508	0.0043669954388	-0.0109707139786	-0.0424701846786	-0.0293279693359	0.0019041800470	0.0016115596486	0.0004357990835
HGDP00220	0.0097582164714	-0.0108390492342	0.0080639402491	-0.0055677194164	-0.0067732036125	-0.0188246151761	-0.0161812375266	-0.0012838910502	-0.0040231132354	-0.0040835014549
HGDP00244	0.0044524532561	-0.0214917928723	0.0013848825236	0.0035468078849	-0.0097858772576	-0.0387033282062	-0.0269624217318	-0.0003942856248	0.0007027586177	-0.0007331441909
HGDP00277	0.0046395002267	-0.0243830339259	-0.0011790058259	0.0041436315552	-0.0174768564407	-0.0780048622075	-0.0567861286270	0.0003763817282	-0.0134945134803	-0.0170919397209
HGDP00307	0.0048777825384	-0.0242645286563	-0.0008799168834	0.0045028387891	-0.0188749538696	-0.0703291958187	-0.0497340332465	0.0002117466587	-0.0143091407688	-0.0163700833167
HGDP00333	0.0045820148901	-0.0249546979795	-0.0005561727763	0.0050592982804	-0.0188429314372	-0.0776954716105	-0.0564486327464	0.0025405367239	-0.0149774671202	-0.0202438992651
HGDP00376	0.0072596769974	-0.0133923311987	0.0065509118342	0.0049687613722	-0.0095056933315	-0.0435956166178	-0.0287354937478	0.0003764575943	0.0015660342572	0.0008129360352
HGDP00438	0.0071898074640	-0.0173102017389	0.0035987802022	0.0025306984097	-0.0113431195923	-0.0425034767495	-0.0307271028575	0.0002397887300	-0.0050398411074	-0.0040419659148
HGDP00815	0.0256891669233	0.0332662049362	0.0379559720860	-0.0229593376766	0.0010687278489	0.0116909648733	0.0002358186790	0.0018038459856	0.0005645810631	0.0027103176846
HGDP00785	0.0255602528862	0.0326293072484	0.0398592455925	-0.0202907393919	0.0019624048529	0.0108573798611	0.0015014230172	0.0009818770187	0.0038700882414	0.0083302440849
HGDP00976	0.0258147677988	0.0334101205631	0.0378795349752	-0.0231800766664	0.0024108033856	0.0094367185411	0.0024050826206	0.0020228982099	0.0046057702656	0.0073939811083
HGDP01296	0.0243583656261	0.0307278408132	0.0360486772868	-0.0207885465769	0.0002272861196	0.0051727100450	0.0014587935352	-0.0007322865888	0.0030963587345	0.0025180257183
HGDP00115	0.0146185992915	0.0017399161361	0.0134366136144	-0.0101715888362	-0.0065073608883	-0.0129340958399	-0.0100917661662	-0.0017573541339	-0.0093478882654	-0.0093944905529
HGDP00129	0.0084981250322	-0.0142869578121	0.0066951778553	-0.0037388286609	-0.0046687354115	-0.0125765574047	-0.0105481878801	0.0003056765816	-0.0001568294738	-0.0022674130844
HGDP00143	0.0008053390408	-0.0193832223729	0.0016520233539	0.0036662818905	-0.0079463052823	-0.0468109532578	-0.0335860746333	-0.0000764464085	0.0077880525711	0.0057566438792
HGDP00158	0.0016701969581	-0.0270399401969	-0.0010122828611	0.0037803627222	-0.0087403090642	-0.0424299858943	-0.0338381517204	-0.0020963322440	0.0147678237110	0.0145989582063
HGDP00181	0.0046812596654	-0.0207722200242	0.0020391480856	0.0049036978112	-0.0128785520148	-0.0483502127241	-0.0355066166345	0.0031238076839	0.0037214864135	0.0035952896760
HGDP00205	0.0041459226957	-0.0217144129045	0.0019567775140	0.0049966798249	-0.0111012722386	-0.0443869774839	-0.0350181671003	-0.0003999427335	0.0037786437404	0.0021904023637
HGDP00228	0.0045430612184	-0.0215604142240	0.0011339050928	0.0043397907680	-0.0104571458067	-0.0398184148100	-0.0302146150212	0.0019498326287	0.0001947597043	-0.0008348450795
HGDP00254	0.0039081080830	-0.0239897926898	0.0007429731159	0.0024606134922	-0.0101772319036	-0.0404673449200	-0.0268487098106	0.0026656460726	-0.0008790353291	-0.0024695098419
HGDP00285	0.0047870717076	-0.0249857485051	0.0002367916011	0.0035345690609	-0.0177064029307	-0.0746150652263	-0.0542436833863	0.0033996147200	-0.0127920585319	-0.0177464737841
HGDP00313	0.0045068673121	-0.0244000484633	-0.0003872769707	0.0043000017910	-0.0191771450750	-0.0810910286610	-0.0601048727165	-0.0009768071499	-0.0117049907171	-0.0174215685439
HGDP00341	0.0072562451203	-0.0161346732450	0.0034867731526	0.0028212667081	-0.0111107495812	-0.0432722452794	-0.0299484948726	0.0011050312505	-0.0060013707477	-0.0018357016146
HGDP00397	0.0067153198654	-0.0156696015306	0.0043660005961	0.0010571921635	-0.0110023050266	-0.0423365408938	-0.0315710722857	0.0007715968091	-0.0032793464062	-0.0037492526027
HGDP00782	0.0255087650621	0.0326621391018	0.0366001492458	-0.0225812635780	0.0012514110318	0.0089126590078	0.0041033404522	0.0032743997491	0.0023170315645	0.0047910021200
HGDP00813	0.0256656308925	0.0340974983479	0.0388339709228	-0.0212681529954	0.0027067964100	0.0091039235029	0.0017652821770	0.0012532521797	0.0045434793772	0.0049347012027
HGDP01288	0.0250949613252	0.0312358053001	0.0351610549742	-0.0212111293171	0.0005370859821	0.0075922196250	0.0025808779296	-0.0017493921275	0.0027974610350	0.0024872528279
HGDP01097	0.0250582753807	0.0328515603104	0.0386508950711	-0.0207522391792	0.0013391773612	0.0100652935926	0.0004645568717	0.0010064650168	0.0053767289886	0.0058692010187
HGDP01182	0.0242787017374	0.0311176076636	0.0350923078764	-0.0184306753136	0.0014301258852	0.0065872230896	0.0000071752302	0.0000151249596	0.0012089284180	0.0015705487580
HGDP01194	0.0250860710646	0.0328323074000	0.0384321978661	-0.0207500969556	0.0016518830103	0.0116814361445	0.0023357459161	0.0028530560347	0.0046884443666	0.0077600959057
HGDP01209	0.0256491435687	0.0302689177899	0.0297342318509	-0.0207773343156	0.0011961315080	0.0028089015387	0.0057436025146	-0.0017934756483	-0.0069390931948	-0.0086511902257
HGDP01221	0.0250636350471	0.0306570969659	0.0308514551603	-0.0219882784861	0.0009173237105	0.0088044214202	0.0026771513037	-0.0008109000734	-0.0039390312395	-0.0062735039945
HGDP01245	0.0249870631936	0.0305813434843	0.0331368496964	-0.0225807556487	0.0013581354505	0.0075536557868	0.0046687264688	0.0008027110348	-0.0015561891764	-0.0027351073074
HGDP01301	0.0137980421804	0.0006021444174	0.0132437461721	-0.0092016114765	-0.0046754331699	-0.0102374573326	-0.0076481791657	-0.0002292559326	-0.0077225153155	-0.0069771051565
HGDP00116	0.0143734092965	0.0022096533557	0.0142468585463	-0.0103383219143	-0.0037795879543	-0.0106343897881	-0.0077512190419	-0.0038681811304	-0.0071043982998	-0.0068716216973
HGDP00130	-0.0275063032818	-0.0020981974405	-0.0020122023711	-0.0005633385003	0.0188001847496	-0.0289419111339	-0.0217202107936	-0.0009332515656	0.0068638042150	0.0029593085925
HGDP00144	-0.0005876372531	-0.0266150665320	0.0000625944766	0.0021126416919	-0.0073935877098	-0.0402878960741	-0.0327681862584	0.0020119877562	0.0147384230145	0.0144326430549
HGDP00160	0.0006426246747	-0.0262590789597	0.0007663575372	0.0009846675477	-0.0088451043163	-0.0430316465342	-0.0291430615495	0.0020953368530	0.0116851387481	0.0104850510150
HGDP00183	0.0041650169233	-0.0200735463702	0.0026805408551	0.0070943298125	-0.0100129559816	-0.0457680928984	-0.0349283909111	0.0025130819178	0.0061536367272	0.0063287574510
HGDP00206	0.0049619592383	-0.0184680242318	0.0036890007837	0.0050792451429	-0.0106229482965	-0.0454379753460	-0.0343248251975	0.0015861633578	0.0041164576040	0.0015614754384
HGDP00230	0.0045395771201	-0.0212666603893	0.0009099449480	0.0050564065123	-0.0107219508891	-0.0407652576939	-0.0289303696076	0.0004484594697	-0.0023689112593	-0.0021958452432
HGDP00258	0.0049452663374	-0.0195328710723	0.0021394301137	0.0047902624029	-0.0106016370422	-0.0429327183415	-0.0328502182276	0.0019531316344	-0.0017200391549	-0.0036134091881
HGDP00286	0.0045584673242	-0.0246880176524	-0.0009652610131	0.0038361274293	-0.0183634532569	-0.0838491133456	-0.0597576952911	0.0019508546228	-0.0144005966617	-0.0198112801636
HGDP00315	0.0050003635548	-0.0246764431905	0.0010823124589	0.0050870267714	-0.0172602298786	-0.0700669779170	-0.0508679326852	0.0003489582139	-0.0101033458526	-0.0148218521790
HGDP00402	0.0069998211742	-0.0160734218553	0.0036866290947	0.0014522449303	-0.0102847677191	-0.0411899207591	-0.0283043852195	0.0017053444686	-0.0032319962297	-0.0046482499655
HGDP00783	0.0260262935089	0.0323460437943	0.0364120170197	-0.0216982884942	0.0013582952492	0.0084336983795	0.0021874856462	0.0002836096425	0.0049450356976	0.0036374951286
HGDP00774	0.0261278093087	0.0345590766580	0.0398383125951	-0.0219272741842	0.0005077486907	0.0071433739729	-0.0002798489830	0.0045894840666	0.0044878218454	0.0061981043100
HGDP00817	0.0249455964841	0.0326170649742	0.0386547390192	-0.0199880930630	0.0010838491855	0.0089283302396	0.0006443032061	0.0014745045756	0.0047519833322	0.0084373784069
HGDP01289	0.0257347369966	0.0315242042388	0.0352603142258	-0.0233582438220	0.0023946591237	0.0077211117350	0.0011701449888	0.0017899043727	0.0008823721506	0.0024306821677
HGDP01098	0.0251768146223	0.0328019540478	0.0381059818238	-0.0216840514202	0.0011359598933	0.0088363080279	0.0013512493525	0.0027317742877	0.0029016617496	0.0048181509668
HGDP01183	0.0240183886843	0.0319111444981	0.0350775792480	-0.0190739154134	0.0011721821479	0.0049586690586	-0.0009139236209	0.0018487735487	0.0024993676910	0.0032226920164
HGDP01195	0.0253687919173	0.0328816177322	0.0375853296828	-0.0209013737896	0.0012076749859	0.0103052271721	-0.0002104582241	0.0026333328988	0.0041912165086	0.0066119630304
HGDP01210	0.0260198330788	0.0325192527344	0.0271862700312	-0.0242979849704	0.0002176937599	0.0045783227987	0.0055492035848	-0.0016051973538	-0.0133334099849	-0.0154831842666
HGDP01222	0.0249507369313	0.0302027134115	0.0315234968228	-0.0218412709306	0.0018913902873	0.0081090472644	0.0034501306441	-0.0022605820242	-0.0036805774165	-0.0047259810602
HGDP01234	0.0251210757180	0.0308760049816	0.0301717608359	-0.0207685905848	0.0010462927696	0.0048763109976	0.0005366039043	-0.0014752672521	-0.0041149458611	-0.0068815254702
HGDP01246	0.0249700539334	0.0313378733527	0.0328917119149	-0.0227868362002	0.0016038057211	0.0077642005114	0.0025907038182	0.0000907448368	0.0004626508104	-0.0006893023372
HGDP01302	0.0175195302506	0.0079729036786	0.0167554970433	-0.0121500077262	-0.0020290788574	-0.0046195905086	-0.0029407939346	-0.0038534216795	-0.0088330295548	-0.0094372960596
HGDP00118	0.0128903866013	-0.0007514658439	0.0145487794879	-0.0086993839388	-0.0058032274308	-0.0134780758715	-0.0117185221309	0.0018811988385	-0.0046568903390	-0.0047092016887
HGDP00145	-0.0015874157743	-0.0250088333643	-0.0010489897804	0.0019003834370	-0.0078404757736	-0.0387387926342	-0.0292725468934	0.0025381775805	0.0139817840345	0.0158490685471
HGDP00161	-0.0011464116640	-0.0256663371377	-0.0001501734712	0.0014430689702	-0.0064224416649	-0.0412500351142	-0.0339387394048	-0.0012648129592	0.0152905831677	0.0149997118003
HGDP00185	0.0037765443662	-0.0219335249104	0.0014615979436	0.0052076763397	-0.0112338677937	-0.0426802045035	-0.0309958595438	0.0001119558569	0.0016158261382	0.0008468933230
HGDP00208	0.0046880977536	-0.0209276342743	0.0026257847607	0.0059949607078	-0.0105971633908	-0.0428153212702	-0.0311510499813	0.0017700053747	-0.0014734257891	0.0005294630730
HGDP00232	0.0045250388019	-0.0217292701941	0.0009704888632	0.0041993908491	-0.0114378870975	-0.0457032211063	-0.0339377100979	0.0021842417230	-0.0003217539426	0.0029980453848
HGDP00259	0.0042523064933	-0.0241088655899	-0.0002157363426	0.0021432794492	-0.0102868055352	-0.0380447858694	-0.0294670098765	0.0007289671302	-0.0023132236892	-0.0032603327538
HGDP00033	0.0025580915785	-0.0270838983749	-0.0000418292826	0.0035913392680	-0.0106985782297	-0.0422465220919	-0.0333677337387	0.0026769706886	0.0114585945934	0.0143744579210
HGDP00288	0.0046022527671	-0.0247551541704	-0.0003487805578	0.0071478587124	-0.0195449896800	-0.0881945898474	-0.0639229546057	0.0006575419020	-0.0144521848356	-0.0199724628678
HGDP00319	0.0048998956139	-0.0248589525530	0.0003210461578	0.0031980532057	-0.0189906382297	-0.0814518767964	-0.0592310580234	-0.0005821156160	-0.0137552226529	-0.0175205774042
HGDP00351	0.0067825143764	-0.0163085293334	0.0037899384738	0.0022674562101	-0.0109315744564	-0.0419994030604	-0.0294238008421	0.0012371633055	0.0012738690673	0.0023707589527
HGDP00407	0.0077165284158	-0.0145066085995	0.0054751530535	0.0037757078068	-0.0107519426212	-0.0409835890689	-0.0329136617305	0.0007153992275	-0.0013916642997	-0.0022410837227
HGDP00971	0.0252225215805	0.0319009331338	0.0387203963362	-0.0236079610300	0.0011801100766	0.0063417718576	-0.0001079515489	0.0025060470323	0.0048439521253	0.0053448960754
HGDP00776	0.0251897497163	0.0328541203856	0.0377104845312	-0.0202757270589	0.0019043383318	0.0096118678397	0.0005423763387	0.0014727594394	0.0055508052708	0.0084313894485
HGDP00819	0.0251886043581	0.0331565922874	0.0390325428227	-0.0220239887479	0.0015434074293	0.0103839744001	0.0021761130038	0.0032902934938	0.0048741572586	0.0078524487291
HGDP01290	0.0251618637032	0.0316682215558	0.0339236705655	-0.0221402203642	0.0010520683796	0.0091657847407	0.0019016006130	0.0014659925191	0.0013473768551	0.0040096586137
HGDP01099	0.0253440100733	0.0331241076429	0.0370433724746	-0.0218426849146	0.0016667766855	0.0110996273394	0.0011647917264	0.0036939390354	0.0032303398609	0.0033933189645
HGDP01184	0.0245521575655	0.0311666649095	0.0346566902335	-0.0202614273833	0.0009087724851	0.0066382735521	0.0017896505564	0.0020296684219	0.0033295925193	0.0041762936895
HGDP01196	0.0251487697032	0.0328151799947	0.0386118898089	-0.0223557113539	0.0023008173817	0.0100315527710	0.0036792987896	0.0040472252866	0.0035582883070	0.0032300592012
HGDP01211	0.0255940022866	0.0302020340574	0.0258454307498	-0.0213624354651	-0.0009274367150	0.0022159028897	0.0040711362551	-0.0045879363561	-0.0138484551872	-0.0157572556913
HGDP01223	0.0243990028930	0.0289480164501	0.0312840918734	-0.0218156395258	0.0005660201208	0.0093380363012	0.0005287760312	-0.0007599328332	-0.0012277460285	-0.0053051141812
HGDP01235	0.0253362454365	0.0315427956881	0.0324374299333	-0.0235137233540	0.0012607776382	0.0053865786735	0.0021460866951	-0.0009998807980	-0.0023661728811	-0.0021129424291
HGDP01247	0.0229911126677	0.0242117075887	0.0303926547228	-0.0211555065312	0.0012289290039	0.0065611997154	0.0066527487037	-0.0007822179341	-0.0011101889161	-0.0033441260472
HGDP01303	0.0127601154685	-0.0032626745552	0.0126095596071	-0.0083437072658	-0.0051434634369	-0.0071663409508	-0.0062643247278	-0.0011578102893	-0.0071982137692	-0.0081652670817
HGDP00124	0.0136294217407	-0.0008661611202	0.0128551231803	-0.0089133183224	-0.0055140750346	-0.0126256568803	-0.0100385995989	0.0027038489187	-0.0071365097374	-0.0088209105014
HGDP00136	-0.0004142045544	-0.0247179483912	0.0002550780090	0.0020813799409	-0.0082393401503	-0.0389745082936	-0.0314243340665	-0.0005347028158	0.0121378025468	0.0133431013472
HGDP00151	-0.0014284944813	-0.0247894816970	-0.0003374548685	0.0044292624400	-0.0068733724147	-0.0406607411122	-0.0318265370526	0.0022946189241	0.0169699558892	0.0145941573036
HGDP00171	0.0047421637118	-0.0209730849181	0.0013757959252	0.0065882186890	-0.0123313871152	-0.0444611553852	-0.0356635745752	-0.0009185350149	0.0031310530509	0.0034429407723
HGDP00195	0.0050130381497	-0.0188650492969	0.0027906969452	0.0070908659877	-0.0088448208298	-0.0474558156708	-0.0359735605443	-0.0002245210458	0.0059719989904	0.0077506805626
HGDP00218	0.0043203708706	-0.0235570050776	0.0008596107501	0.0025018993612	-0.0099497861392	-0.0375950037563	-0.0259597534761	-0.0005236081007	-0.0028054052303	-0.0027438032471
HGDP00243	0.0035410680489	-0.0253934949349	-0.0009326474514	0.0018315372853	-0.0096214816067	-0.0403591201912	-0.0304409060758	0.0030959097271	-0.0007341387399	0.0006444222344
HGDP00274	0.0049652250319	-0.0245210361070	0.0000607202077	0.0031126389823	-0.0184684910031	-0.0778411284908	-0.0569428962736	0.0004618041728	-0.0151212896791	-0.0174760964509
HGDP00304	0.0048663956450	-0.0247824558416	-0.0003475435508	0.0050596761839	-0.0172274931034	-0.0734425991366	-0.0533093205617	0.0038972963888	-0.0096651117886	-0.0137241521583
HGDP00330	0.0046410140924	-0.0245616519521	-0.0001262003721	0.0038764866781	-0.0194720092512	-0.0804762939853	-0.0577151396604	0.0003966349109	-0.0145926443131	-0.0193156444513
HGDP00372	0.0075881038048	-0.0153260346497	0.0044434142932	0.0015653572315	-0.0117128298113	-0.0426192516763	-0.0309432747569	0.0026791930966	-0.0023459196359	-0.0019502654192
HGDP00433	0.0059516840445	-0.0178287718200	0.0033057874278	0.0028883195839	-0.0100181365454	-0.0431464657094	-0.0314885978695	0.0000965388596	-0.0012210339922	0.0007036544002
HGDP00814	0.0254024179136	0.0331237568013	0.0374213080161	-0.0220902888991	0.0027649958544	0.0097697222162	0.0012378041099	0.0033471855036	0.0014900680083	0.0047356832995
HGDP00784	0.0248807781145	0.0318795788407	0.0381446962654	-0.0222788883253	0.0022625153470	0.0078710966371	0.0018292434466	0.0010841363655	0.0047255729714	0.0054846353479
HGDP00975	0.0249976490104	0.0329110271874	0.0389326932676	-0.0205877195712	0.0022200459181	0.0102327450522	0.0007953914928	0.0058653379422	0.0072113489124	0.0068706274222
HGDP01295	0.0245344151873	0.0311667067812	0.0353400053658	-0.0219945034275	0.0006889137108	0.0075863301385	0.0014730181090	0.0028006691455	0.0014192401974	0.0013506766573
HGDP01104	0.0257003305581	0.0327884123720	0.0384296872294	-0.0239917519132	0.0023049348228	0.0096915956135	0.0028947823047	0.0019650019307	0.0039133255897	0.0047123213982
HGDP01189	0.0251022549465	0.0322653744474	0.0385386393513	-0.0204895284518	0.0020710408315	0.0089631257851	-0.0014321144410	0.0050908931949	0.0045384557998	0.0066760737283
HGDP01204	0.0247923572649	0.0309484585060	0.0330211736882	-0.0226141770063	-0.0003846564992	0.0060314772051	0.0041984773184	0.0002660244847	-0.0044816392729	-0.0031288119939
HGDP01216	0.0246984632247	0.0301743835956	0.0303726389543	-0.0206685866656	0.0011160167478	0.0039317955444	0.0047181526865	0.0029343319952	-0.0052605180373	-0.0062435505487
HGDP01228	0.0246006998651	0.0295296023790	0.0308797915294	-0.0215076296269	0.0005805259721	0.0059110763101	0.0029328109244	-0.0010463656726	-0.0007925881584	-0.0008699228618
HGDP01240	0.0252530769717	0.0314344048922	0.0292610005528	-0.0231591035883	0.0003849844562	0.0044282239271	0.0043119196055	-0.0013686410533	-0.0037260915283	-0.0065537955721
HGDP01308	0.0241497748384	0.0304031118078	0.0388976500332	-0.0185149520658	0.0017698782773	0.0064296940898	-0.0022834805676	0.0006404515315	0.0077141471076	0.0096332019820
HGDP00057	-0.0108126437159	-0.0169685997228	-0.0025864622915	0.0016342353623	0.0013745815550	-0.0308128835489	-0.0246388934629	-0.0011235571320	0.0099187216047	0.0084580262962
HGDP00127	0.0141572867981	0.0013754232994	0.0147499048696	-0.0114284807429	-0.0056824170091	-0.0098747995322	-0.0038748127772	-0.0015253734207	-0.0078759626138	-0.0106240253893
HGDP00139	-0.0087422821832	-0.0202108302496	-0.0017382484468	0.0016725118724	-0.0016592005896	-0.0372153611061	-0.0290961886440	0.0041223216550	0.0106587865344	0.0107222797302
HGDP00154	-0.0011114429014	-0.0267384093242	-0.0012198793395	0.0033496339031	-0.0075931097114	-0.0437725248102	-0.0330322768633	0.0007951815051	0.0177435146422	0.0183132155828
HGDP00175	-0.0285938651017	0.0015606252373	-0.0000664431042	0.0011102955975	0.0162309694474	-0.0350337637697	-0.0223016980167	0.0003380066198	0.0043621747842	-0.0030779168486
HGDP00199	0.0022324758285	-0.0257119312577	0.0002993474902	0.0034378805873	-0.0112096231831	-0.0467796253880	-0.0369482961187	-0.0003681560795	0.0113582662071	0.0112967166310
HGDP00222	0.0046692817707	-0.0222566495052	0.0008776941320	0.0055095867174	-0.0114694231525	-0.0416660850055	-0.0308343551667	0.0005842329204	0.0000166274307	-0.0006136012414
HGDP00279	0.0051919701903	-0.0234788846451	-0.0003099901867	0.0040345215641	-0.0143725581955	-0.0611666098043	-0.0434942656467	-0.0008332149796	-0.0101710530610	-0.0127513519115
HGDP00309	0.0049376435688	-0.0241249800598	-0.0011063829650	0.0053081894023	-0.0175102804215	-0.0751484576999	-0.0557578790030	0.0027240950569	-0.0117454225199	-0.0164458498888
HGDP00382	0.0069652760042	-0.0160300068737	0.0032688869336	0.0019581357512	-0.0119343668476	-0.0415493963292	-0.0284703645022	0.0027355592828	-0.0000881625915	-0.0021055270707
HGDP00444	0.0067892061858	-0.0166203622293	0.0033354465812	0.0011440789548	-0.0110728452585	-0.0454906919877	-0.0330418103906	0.0001014046565	-0.0013497811555	-0.0020011391152
HGDP00818	0.0254682441267	0.0338311130097	0.0396823723553	-0.0222742176693	0.0026009745807	0.0091499806289	0.0050857911874	0.0037987450775	0.0020349225797	0.0038550551089
HGDP00786	0.0257242908547	0.0341597372193	0.0383889375662	-0.0218635762539	0.0008749514019	0.0099224718443	0.0026976731393	0.0016468847075	0.0013091162085	0.0053716547900
HGDP00977	0.0257446166921	0.0335884198562	0.0383472071293	-0.0220900892396	0.0030309718878	0.0116301558988	0.0018573630351	0.0023971301050	0.0057488687646	0.0062864636091
HGDP01095	0.0253936938441	0.0333957484046	0.0379559748987	-0.0209221248639	0.0024067246866	0.0102106593517	0.0030490276191	0.0028461411475	0.0033618832190	0.0037845209866
HGDP00080	0.0014187408847	-0.0265067820648	-0.0006159076376	0.0019850761057	-0.0084704485436	-0.0410944858765	-0.0330975413179	-0.0015439156644	0.0144629916806	0.0128870928494
HGDP01180	0.0248273373324	0.0322526153728	0.0356221536176	-0.0195007275952	0.0009829185183	0.0051293651819	-0.0004296665335	0.0040656626564	0.0041978966024	0.0055930207466
HGDP01191	0.0252818086325	0.0327318208978	0.0380371735971	-0.0218269365388	0.0029249340028	0.0113765094647	-0.0005719010380	0.0046870657160	0.0046855098542	0.0066092580487
HGDP01206	0.0254737328892	0.0301201262195	0.0275997847078	-0.0229650724727	-0.0003773968450	0.0026960828426	0.0039305312446	-0.0032904961525	-0.0077763947162	-0.0116395680308
HGDP01218	0.0243560842867	0.0305486385514	0.0316821123414	-0.0223786906532	0.0016473263299	0.0072960104574	0.0031450144011	-0.0031605426591	-0.0030285329567	-0.0034085285244
HGDP01230	0.0235718573142	0.0251328992248	0.0259464783755	-0.0192022925234	-0.0013171877210	0.0009284783343	0.0014885938293	-0.0018356058361	-0.0076470103586	-0.0111004616403
HGDP01242	0.0254388548644	0.0314554751243	0.0309719315593	-0.0213971451722	-0.0005110825088	0.0066035926239	0.0065014280251	0.0000824113121	-0.0054079801503	-0.0069789539567
HGDP01298	0.0121255882560	-0.0048330657438	0.0116341831792	-0.0087182445400	-0.0038513772562	-0.0105765437805	-0.0104255037020	-0.0022124212112	-0.0068093366851	-0.0087642493600
HGDP01310	0.0237686776978	0.0310813542218	0.0400862439953	-0.0179985751556	0.0018040563594	0.0112086763818	-0.0017158877560	0.0045273399893	0.0058749163601	0.0085100158090
HGDP00128	0.0140145818495	0.0016638296611	0.0144560340541	-0.0135014991935	-0.0048612009661	-0.0095060152068	-0.0076349268790	-0.0014112968866	-0.0087485085155	-0.0106184383693
HGDP00140	-0.0014033960303	-0.0231069286740	0.0001406547327	0.0019176416699	-0.0048824539346	-0.0379848163214	-0.0280798687228	0.0021605563062	0.0107678550214	0.0083749707572
HGDP00155	0.0007102945071	-0.0275398703996	-0.0009909738734	0.0008216660033	-0.0077874769884	-0.0396724648577	-0.0296400554228	0.0002850305685	0.0118938421406	0.0155812163968
HGDP00177	-0.0037106077835	-0.0152837727342	0.0024274807263	0.0049558632948	-0.0046362027705	-0.0457056907947	-0.0338658073313	0.0014185975775	0.0037132664324	0.0036019887306
HGDP00201	0.0040825463569	-0.0207761215492	0.0010835157108	0.0052584902864	-0.0108730376960	-0.0446425839646	-0.0318879400348	0.0016324495883	0.0019428920386	0.0021797336623
HGDP00224	0.0046227503537	-0.0230479412330	0.0001678523296	0.0037910583939	-0.0099597304938	-0.0380355449168	-0.0255337853996	0.0027379233827	-0.0051523888777	-0.0041500571548
HGDP00281	0.0049339291678	-0.0247107469303	0.0003760540188	0.0041526172525	-0.0170932715931	-0.0768761595644	-0.0563673791875	0.0007888240254	-0.0132639716413	-0.0197233700551
HGDP00141	-0.0016335151297	-0.0251815875591	-0.0007799267338	0.0005588788471	-0.0058027230740	-0.0377661455491	-0.0308736154550	0.0042313690078	0.0104999345683	0.0120534608025
HGDP00157	-0.0013354412588	-0.0265313602577	-0.0005200503703	0.0023048925593	-0.0063915069166	-0.0426939333126	-0.0331294970877	-0.0006410455951	0.0158856006794	0.0179685531915
HGDP00179	0.0037387757335	-0.0212506574922	0.0021571780664	0.0066815488964	-0.0125970103589	-0.0528609064147	-0.0379424819287	-0.0022748580103	0.0078237596468	0.0082196913088
HGDP00226	0.0045407075347	-0.0223667002013	0.0009396889110	0.0031900582451	-0.0101960708760	-0.0356123500823	-0.0257667857142	0.0013347010034	0.0016196361208	0.0007949314103
HGDP00251	0.0038895798315	-0.0222246588996	0.0026987743200	0.0038198452209	-0.0117320558861	-0.0414974358010	-0.0311027889720	-0.0005034989650	-0.0038147343956	-0.0017556430407
HGDP01193	0.0249354749472	0.0329415641281	0.0382060406000	-0.0216662780598	0.0016947015332	0.0078005806364	0.0003043156199	0.0044332911036	0.0047788951331	0.0069037000998
HGDP01208	0.0257017606785	0.0313546905822	0.0300502492595	-0.0224293629230	-0.0003328434294	0.0043798122008	0.0027708660797	-0.0011577410368	-0.0054885260551	-0.0043594707400
HGDP01181	0.0246524994190	0.0316395062259	0.0358530121411	-0.0177577293845	0.0014340619745	0.0048489257732	0.0012898749240	0.0011422055388	0.0031660507005	0.0022460469769
HGDP01192	0.0252056849249	0.0333998188736	0.0384546391785	-0.0218041404710	0.0018839105461	0.0116837202303	-0.0005334839363	0.0029726485349	0.0050765523426	0.0079950814186
HGDP01207	0.0249110389721	0.0292550850527	0.0289132186866	-0.0227515190800	0.0001168480947	0.0054340562952	0.0055408500301	-0.0002421722517	-0.0077316169997	-0.0099426807539
HGDP01231	0.0245096159885	0.0302570798878	0.0333508858822	-0.0229950340063	0.0008003455863	0.0080778361935	0.0047554200774	-0.0007014349272	-0.0019103113967	-0.0038625513855
HGDP01243	0.0207112886364	0.0175490681569	0.0253190755136	-0.0182688199307	-0.0008690341847	0.0075487943504	0.0019232689599	-0.0037694203913	-0.0090659876175	-0.0079434850318
HGDP01299	0.0147157797074	0.0001378401391	0.0134663695157	-0.0102887466802	-0.0038132482579	-0.0092478883092	-0.0077735390130	-0.0009739539778	-0.0065079053171	-0.0071456191993
HGDP01311	0.0239535237614	0.0317244359369	0.0395195053971	-0.0168451407325	0.0030783607059	0.0091866053917	-0.0017934606466	0.0026451234945	0.0054546681508	0.0084756745310
